tree
version=v4
num_class=1
num_tree_per_iteration=1
label_index=0
max_feature_idx=55
objective=binary sigmoid:1
feature_names=trend_strength ob_distance ob_size ob_age fvg_nearest_distance fvg_size fvg_count volatility rsi_value atr_value price_position distance_to_high distance_to_low volume_ratio confluence_score potential_rr pullback_depth pullback_bars ob_test_count ob_return_age smc_signal_strength ob_impulse_size bb_position bb_width volume_delta ob_near fvg_near ema_aligned liquidity_near mtf_aligned volume_spike trend_bos_aligned is_pullback ob_is_fresh has_ob_return has_fvg_fill ob_confirmed_mitigated ob_in_mitigation ob_caused_bos ob_has_displacement bb_squeeze bb_breakout_upper bb_breakout_lower large_volume_spike accumulation_detected distribution_detected trend_direction ob_type fvg_type ema_trend rsi_state direction session pullback_fib smart_money_direction ob_state
feature_infos=[0:1] [0:1] [0:0.51967474489795928] [0:100] [0:1] [0:0.5] [0:196] [0.00086427227172309999:1.7600416574722422] [1.0928525845564965:100] [8.4571428571000005e-06:6138.636428571429] [0:1] [0:27.53893649193548] [0:0.99997427917384696] [0.0035331052180316001:15.987629730042038] [0.1666666666666666:1] none [0:0.97260049220672584] [0:28] [0:1] [0:60871] [0:0.90000000000000002] [0:28.589874277947608] [0:1] [0.24628255175110661:3745.4352574062241] [-9.1254816050485577:15.987629730042038] [0:1] [0:1] [0:1] none [0:1] [0:1] [0:1] [0:1] none [0:1] [0:1] [0:1] [0:1] [0:1] [0:1] [0:1] [0:1] [0:1] [0:1] [0:1] [0:1] -1:1:0 -1:2:0:1 -1:0:1:2 -1:0:1 -1:0:1:2 -1:0:1 -1:0:2:4:1:3 -1:4:0:1:2 -1:1:0 -1:0:2
tree_sizes=3391 3458 3467 3439 3420 3460 3437 3446 3323 3325 3451 2665 3467 3446 3476 3482 3486 3467 3486 3445 3470 3437 3484 3454 3471 3451 3462 3481 3440 3469 3476 3360 2910 3424 3463 3422 3454 3474 3471 3480 3436 3137 2907 2778 3204 3243 3245 3465 3485 3125 3456 3442 3453 3424 3441 3452 3450 3447 3451 3428 3433 3436 3455 3474 3471 3422 3468 2814 3210 2680 3458 3508 3480 3471 3484 3465 3478 3460 3457 3363 3461 3433 3436 3411 3452 3445 3480 3473 3488 3428 3492 3460 3405 3473 3441 3332 3426 3451 3454 3463 3458 3430 3428 3438 3451 3458 3463 3463 3467 3466 3483 3483 3472 2378 2270 3444 3458 3480 3449 3397 3424 3351 3036 3451 3238 3455 3472 3446 3426 3405 3482 3444 3482 3459 3487 3482 3474 3480 3444 3479 3460 3464 3431 3430 3429 3480 3498 2384 3466 3449 3453 3449 3326 2905 3142 2917 3044 3457 2936 3247 3494 3464 3455 3466 3466 3444 3442 3397 3033 3463 3238 3439 3442 3442 3440 3429 3428 3467 3473 3426 3481 3456 3492 3445 3434 3458 3416 3487 3455 3470 3023 2387 3447 2380 2159 3455 3456 3481 3453 3453 3030 3467 3459 3448 2276 3436 3439 3433 3453 3417 3457 3449 3460 3462 3452 3487 3439 3453 3430 3359 3482 3497 3483 3479 3420 3443 2946 3454 3422 2535 3452 3462 2711 2071 2695 3429 3453 3473 3343 3400 3462 3425 3471 3464 3472 3455 3442 3487 2629 3462 3464 3486 3500 3464 3463 3474 3458 3467 3437 3473 3503 3445 3449 3430 3452 3423 3498 2693 3455 3468 3492 3498 3237 3489 3458 3453 3476 3424 3453 3425 3427 3429 3420 3499 3429 3443 3431 3456 3333 3438 2808 2943 2826 3465 2820 3465 3453 3481 3473 3455 2491 2470 3462 2526 2288 3493 3480 3488 3470 3463 3462 3353 2395 2697 3458 3484 3475 3441 3417 3414 3475 3429 3457 3431 3485 3451 3480 3475 3451 3446 3425 3450 3435 3432 3451 3465 3461 3443 3437 3458 3463

Tree=0
num_leaves=31
num_cat=0
split_feature=23 16 6 19 7 23 19 19 2 19 0 6 19 17 23 20 21 7 16 22 17 16 21 5 21 21 16 16 23 12
split_gain=59.0771 38.2946 22.2954 31.4515 19.065 32.6951 18.2323 17.8038 15.8054 15.3365 18.9381 18.811 18.6035 15.4931 14.3189 14.2887 14.2149 14.092 13.9638 19.4864 12.7368 11.6575 11.2941 10.5791 10.4759 10.3913 17.7472 11.3223 10.3564 10.214
threshold=75.106345668641396 0.52748871953194143 3.5000000000000004 375.50000000000006 0.027912115278189552 26.362682426637296 246.50000000000003 458.50000000000006 0.097754036526910212 632.50000000000011 0.56400470052062979 6.5000000000000009 23.500000000000004 16.500000000000004 11.760751796769037 0.60000000000000009 1.7400640484324759 0.089100200130239407 0.42210401690336757 0.21470357371188845 18.500000000000004 0.016370141394976657 1.6743485352778869 0.15542191957402632 0.8393632991240686 1.9080295547373043 0.26995879731494093 0.15815612475238439 23.130037226008465 0.18188298460138078
decision_type=2 2 2 2 2 2 2 2 2 2 2 2 2 2 2 2 2 2 2 2 2 2 2 2 2 2 2 2 2 2
left_child=1 2 3 15 23 14 -7 24 -9 10 11 29 17 -14 -6 21 -17 -12 19 -2 -11 -1 -22 -4 -5 26 27 -21 -25 -3
right_child=18 9 4 7 5 6 -8 8 -10 20 12 -13 13 -15 -16 16 -18 -19 -20 25 22 -23 -24 28 -26 -27 -28 -29 -30 -31
leaf_value=-0.37079462614522229 -0.32284369619007314 -0.42722392902871453 -0.38104716009973355 -0.44197184070362205 -0.35049877802798612 -0.4048905068048676 -0.37148870037764692 -0.38992600874595257 -0.35356672249506554 -0.39069304674329236 -0.37665387197743017 -0.3769201297106568 -0.34269834442314417 -0.43790901646670866 -0.36879617242209278 -0.3779111282717792 -0.39086107319372654 -0.29027783390718465 -0.29197752766326163 -0.3742410219979605 -0.38269830423410317 -0.29654333783004949 -0.34511421680684135 -0.37535174736967436 -0.40237554184056135 -0.33047575050479261 -0.42754872354269008 -0.32179156248981389 -0.33060368949498331 -0.40376630585671813
leaf_weight=12.782921597361566 38.83113919198513 75.973967984318733 1925.8797916024923 20.742099195718765 145.91825596988201 87.792140781879425 75.973967984318733 673.87703666090965 31.113148793578148 280.9830879420042 9.6474879980087298 44.619631990790367 6.5120543986558941 11.81817279756069 407.12399351596832 1421.7985437065363 248.90519034862518 9.4063007980585081 10.371049597859381 46.066755190491676 52.819996789097786 9.1651135981082898 31.836710393428802 1020.7042301893234 90.686387181282043 17.124291196465492 12.541734397411345 13.265295997261999 13.024108797311781 124.21140797436237
leaf_count=53 161 315 7985 86 605 364 315 2794 129 1165 40 185 27 49 1688 5895 1032 39 43 191 219 38 132 4232 376 71 52 55 54 515
internal_value=-0.380121 -0.380776 -0.379566 -0.383198 -0.377085 -0.369769 -0.389369 -0.391259 -0.388311 -0.392342 -0.401103 -0.40617 -0.368074 -0.403794 -0.363955 -0.379313 -0.379844 -0.333506 -0.347769 -0.352399 -0.385562 -0.339324 -0.368599 -0.378859 -0.40984 -0.365401 -0.373848 -0.362352 -0.374778 -0.412713
internal_weight=6971.52 6833.32 6185.49 2509.07 3676.42 716.808 163.766 816.419 704.99 647.829 282.189 244.805 37.384 18.3302 553.042 1692.65 1670.7 19.0538 138.2 127.829 365.64 21.948 84.6567 2959.61 111.428 88.9981 71.8738 59.3321 1033.73 200.185
internal_count=28905 28332 25646 10403 15243 2972 679 3385 2923 2686 1170 1015 155 76 2293 7018 6927 79 573 530 1516 91 351 12271 462 369 298 246 4286 830
is_linear=0
shrinkage=1


Tree=1
num_leaves=31
num_cat=1
split_feature=23 16 2 23 20 6 9 11 12 3 12 9 9 12 9 9 7 9 12 12 2 4 13 16 16 9 47 9 16 5
split_gain=53.045 34.68 20.4673 38.2757 22.9478 23.5583 24.6467 22.9308 19.0554 17.9865 15.4093 14.2653 21.9942 12.6453 15.8896 12.8474 12.5868 12.5489 13.9676 12.3498 12.0695 11.6882 11.705 10.7062 9.85104 9.24557 8.53382 10.0662 8.44683 8.19482
threshold=75.106345668641396 0.57943925233644966 0.2108846730745346 27.85439204138039 0.60000000000000009 3.5000000000000004 0.00026609999999995009 0.030994798953663003 0.054264591372679256 45.500000000000007 0.41907368154639507 0.021549999999999955 8.5921428571428606 0.28315600830032078 0.030357142857142853 2.5235428571428584 0.14286727744446243 0.049657142857142809 0.044334077068848204 0.34713369077180034 0.0082957034192066032 0.6579234877666752 1.2700559684252606 0.65112266733801116 0.26542095846027353 0.099949999999999914 0 0.005849642857142851 0.13572716430170381 0.0071427425024307009
decision_type=2 2 2 2 2 2 2 2 2 2 2 2 2 2 2 2 2 2 2 2 2 2 2 2 2 2 1 2 2 2
left_child=1 2 4 9 28 6 -6 -7 17 -4 -5 16 21 29 19 -16 -2 26 20 -15 -19 24 25 -20 -13 -23 27 -3 -1 -10
right_child=11 8 3 10 5 7 -8 -9 13 -11 -12 12 -14 14 15 -17 -18 18 23 -21 -22 22 -24 -25 -26 -27 -28 -29 -30 -31
leaf_value=0.022267648151349993 0.021090938481400825 0.01635169307106939 0.10901636135340634 -0.045217913399294755 -0.044015926233976307 -0.0024859163137685384 -0.0032743693475537267 0.0054987659969611361 -0.043254049855986687 -0.0002623269212784935 0.054870917548223985 0.047159005581959484 0.057886294740242684 0.096383083510089756 -0.033184656084325734 0.0153408087574828 0.087948406999363779 -0.0042597523235192525 0.077035997653686919 0.0035266730301338534 -0.04138045091121173 0.020208817613540608 0.040942632520469563 0.001362158283108073 -0.030371526040659427 -0.033384634509454711 -0.00087356699657612771 0.076869773482144271 0.085607555016401771 -0.021196531662338917
leaf_weight=12.088954851031305 12.135036468505861 23.36306656897068 15.690596759319307 13.032382979989054 37.614281535148621 1478.3369051963091 2463.9961538165808 2292.4728683233261 54.981527134776115 4.824290305376052 5.3111188411712638 23.301021695137027 30.595941781997681 6.2768771499395362 34.854222789406776 22.129363805055618 17.749423921108246 55.19275738298893 6.7484017163515118 8.452905520796774 36.611112967133522 10.882447719573973 10.200485125184057 15.174586594104765 4.8121729493141165 29.280775710940361 33.733241960406303 9.8724451065063459 9.7729979604482633 191.56760413944721
leaf_count=50 50 97 65 54 156 6128 10224 9499 229 20 22 96 126 26 145 92 73 229 28 35 152 45 42 63 20 121 140 41 40 797
internal_value=-0.000101915 -0.000724862 0.000274349 0.0364039 4.99309e-05 -0.000127913 -0.00389069 0.00236708 -0.0134151 0.0831992 -0.015827 0.030469 0.0219749 -0.0207761 -0.00221604 -0.0142585 0.0611276 -0.000418103 -0.0105535 0.0438163 -0.0191467 0.00785452 -0.00648377 0.0251274 0.0336502 -0.0187249 0.0167095 0.0346549 0.0510712 -0.0261513
internal_weight=6971.06 6832.1 6333.14 38.8584 6294.28 6272.42 2501.61 3770.81 498.958 20.5149 18.3435 138.957 109.073 318.263 71.7134 56.9836 29.8845 180.696 113.727 14.7298 91.8039 78.4769 50.3637 21.923 28.1132 40.1632 66.9688 33.2355 21.862 246.549
internal_count=28905 28332 26258 161 26097 26007 10380 15627 2074 85 76 573 450 1324 298 237 123 750 472 61 381 324 208 91 116 166 278 138 90 1026
cat_boundaries=0 1
cat_threshold=1
is_linear=0
shrinkage=0.05


Tree=2
num_leaves=31
num_cat=1
split_feature=23 16 23 2 19 49 9 19 7 3 31 0 9 21 0 17 0 4 9 9 19 3 0 10 4 2 17 23 24 9
split_gain=47.6794 31.8826 19.7995 43.3782 19.2528 26.13 20.8514 13.4942 17.6094 19.1448 15.4446 13.1756 13.0335 21.4908 22.5361 19.7711 14.1689 12.7475 12.7169 19.0724 12.909 12.212 11.5543 12.8209 10.4089 10.2079 11.651 10.1143 9.3014 8.37135
threshold=75.106345668641396 0.52748871953194143 26.666979640510519 0.2108846730745346 183.50000000000003 0 247.00285714285658 632.50000000000011 0.094045727143322919 64.500000000000014 1.0000000180025095e-35 0.6576382978268327 1.2517964285714285 0.88224257050066657 0.40266752546131829 16.500000000000004 0.30850428105355915 0.11253389330703821 0.017357142857142852 8.5921428571428606 183.50000000000003 41.500000000000007 0.11346739532304011 0.44493327367845964 0.6579234877666752 0.0058571183756731008 17.500000000000004 5.5207593517349869 1.0724336769823615 0.17428571428571446
decision_type=2 2 2 2 2 1 2 2 2 2 2 2 2 2 2 2 2 2 2 2 2 2 2 2 2 2 2 2 2 2
left_child=1 2 3 4 5 -1 -6 8 9 27 -10 -12 13 14 -4 17 -15 -14 20 24 -2 -5 25 -24 29 26 -9 -3 -25 -20
right_child=18 7 12 21 6 -7 -8 22 10 -11 11 -13 15 16 -16 -17 -18 -19 19 -21 -22 -23 23 28 -26 -27 -28 -29 -30 -31
leaf_value=0.001119414170496545 0.081102074433406821 -0.00042853150187941607 -0.032309789951456461 0.10011458050794773 0.00086714277149254238 0.016770595176647442 -0.014009918849990928 -0.0077336899814743273 -0.039619267759293197 0.042808788687580882 0.005247445375860642 0.073763997027815206 -0.0082945308210225638 0.012221988762660646 0.0017974217550615281 0.054249249931585614 -0.026420342041544326 0.0056321521905571383 -0.00018537101968265485 0.054499470409712064 0.0067501117558291697 0.0069571453336522912 -0.016614159239375668 0.037136842517655269 -0.005197770924038024 -0.017103183517681916 0.027077596895647812 -0.032056401127943078 -0.024738003964399853 0.054103062376004235
leaf_weight=671.1547959446907 19.655920356512073 29.379520416259766 56.347599938511848 14.24724465608597 3492.8547492027283 443.24437485635281 252.44991677999496 86.855977386236191 11.728017434477804 9.8360827565193159 22.536501660943031 10.221177980303763 339.6493333876133 26.477907791733742 339.67611937224865 16.163997128605843 211.06023693084717 317.80675736069679 11.677703052759172 30.87113182246685 8.5299623757600767 4.838342308998107 24.018519520759583 40.882514327764511 51.512863710522652 172.8549457937479 33.089249849319458 196.47455529868603 6.9580733627080908 17.320838913321495
leaf_count=2782 80 122 234 58 14477 1837 1047 361 49 41 94 42 1410 110 1410 67 876 1318 48 126 35 20 100 170 213 719 137 822 29 71
internal_value=-9.70488e-05 -0.000689067 0.000413112 0.00187809 0.00158077 0.00734999 -0.000134649 -0.0112686 -0.0195245 -0.0249746 0.00922937 0.0269378 -0.0050505 -0.0101982 -0.00304978 -0.000200755 -0.0220886 -0.00155509 0.0288217 0.0211242 0.0588809 0.0769184 -0.00490799 0.0130164 0.00821305 -0.00932702 0.00184259 -0.0279663 0.0280005 0.0321438
internal_weight=6970.37 6830.81 6185.97 4878.79 4859.7 1114.4 3745.3 644.835 280.176 235.69 44.4857 32.7577 1307.18 633.562 396.024 673.62 237.538 657.456 139.568 111.383 28.1859 19.0856 364.659 71.8591 80.5114 292.8 119.945 225.854 47.8406 28.9985
internal_count=28905 28332 25646 20221 20143 4619 15524 2686 1170 985 185 136 5425 2630 1644 2795 986 2728 573 458 115 78 1516 299 332 1217 498 944 199 119
cat_boundaries=0 1
cat_threshold=1
is_linear=0
shrinkage=0.05


Tree=3
num_leaves=31
num_cat=0
split_feature=23 16 6 9 20 11 22 11 6 2 23 7 9 9 9 6 12 9 9 4 9 2 21 16 9 7 21 13 21 14
split_gain=42.8961 28.8662 18.1855 23.643 24.938 20.6885 20.048 19.3733 41.7102 16.4077 14.9516 25.1776 11.6874 11.4266 17.5229 11.2735 16.9552 24.1289 16.8536 11.8162 10.986 10.8145 19.3125 10.3385 10.3145 10.0832 29.2025 17.2865 9.29619 8.3177
threshold=75.106345668641396 0.52748871953194143 3.5000000000000004 0.0093710714285713519 0.80000000000000016 0.030994798953663003 0.052571209483485502 0.54662195217399756 1.0000000180025095e-35 0.053070165020681313 26.362682426637296 0.027912115278189552 0.032142857142857161 0.021549999999999955 8.5921428571428606 6.5000000000000009 0.18188298460138078 9.6232142857142886 0.0014224999999999503 0.0091297689166150008 0.69792142857142847 0.060694445615247755 0.8393632991240686 0.39222975259124859 887.78249999999991 0.15079638506645252 1.6743485352778869 1.2700559684252606 0.40937980183523209 0.58333333333333337
decision_type=2 2 2 2 2 2 2 2 2 2 2 2 2 2 2 2 2 2 2 2 2 2 2 2 2 2 2 2 2 2
left_child=1 2 3 7 12 24 -6 9 -9 -1 11 -7 -5 23 25 16 21 18 -18 -19 -12 -3 -23 29 -4 28 27 -27 -15 -2
right_child=13 15 5 4 6 10 -8 8 -10 -11 20 -13 -14 14 -16 -17 17 19 -20 -21 -22 22 -24 -25 -26 26 -28 -29 -30 -31
leaf_value=-0.027963392466297539 0.086625019003379364 -0.038768995400847023 -0.002372493880314248 0.018884631767967248 0.015045302269886016 0.0036204591089128882 -0.0068450621087991145 -0.048864156403442667 0.058987969164548439 0.0086648747402274223 0.0063879148472644493 0.016374817589674507 0.0030628966959904739 0.069473889520940108 0.0514170990585665 -0.0041827740850001868 0.040906469018231417 0.080645229779957264 -0.024212215079070631 0.010939513803087303 -0.019659077783822448 -0.057413530127927381 0.037699471675097095 0.10571163974511502 0.049190490989464285 -0.04412276693274296 0.090619428987598172 0.041143161226103869 0.011235808510436127 0.018293191276000681
leaf_weight=196.14528901875019 6.1607857048511567 101.8157264739275 1438.4455103725195 142.47556698322296 113.30485440790653 1550.0060801208019 1329.4685800224543 14.663758337497709 22.645152717828751 35.935631334781647 69.114079862833023 516.34340220689774 651.24178656935692 9.2425278127193433 31.085827857255936 325.93143473565578 10.624456971883772 6.9420484602451316 128.62077635526657 47.183652818202972 96.737401813268661 8.7667934745550173 13.306156307458876 7.4575850069522849 9.6569387018680555 28.910310059785843 6.1061452925205222 7.3335374146699897 27.038051158189774 16.714370623230934
leaf_count=815 25 428 5965 590 471 6418 5525 61 94 149 287 2131 2698 38 126 1356 44 29 539 197 402 37 56 30 40 120 25 30 111 68
internal_value=-9.2553e-05 -0.000655188 0.000392273 -0.00289206 -0.00120375 0.00262992 -0.00512156 -0.0168844 0.0164472 -0.022269 0.00564985 0.0068106 0.00591128 0.0272891 0.0196754 -0.0107359 -0.0174489 -0.00815496 -0.019182 0.0201043 -0.00877727 -0.0318968 0 0.0545089 -0.00202181 0.00701381 -0.00946475 -0.0266668 0.0263597 0.037211
internal_weight=6969.42 6829.38 6186.18 2505.88 2236.49 3680.3 1442.77 269.39 37.3089 232.081 2232.2 2066.35 793.717 140.049 109.716 643.191 317.26 193.371 139.245 54.1257 165.851 123.889 22.0729 30.3327 1448.1 78.6306 42.35 36.2438 36.2806 22.8752
internal_count=28905 28332 25646 10403 9284 15243 5996 1119 155 964 9238 8549 3288 573 450 2686 1330 809 583 226 689 521 93 123 6005 324 175 150 149 93
is_linear=0
shrinkage=0.05


Tree=4
num_leaves=31
num_cat=2
split_feature=23 16 2 29 20 9 9 23 5 10 5 10 8 21 16 16 49 21 16 11 14 17 24 48 9 10 22 11 16 10
split_gain=38.6913 26.3434 16.5334 32.8242 19.7911 15.5458 15.1729 17.5112 15.1711 14.4546 12.8714 12.1053 11.545 15.2264 14.1505 16.9884 10.673 10.2459 8.4678 8.42497 8.06411 7.43192 7.01764 7.06743 6.66183 6.21935 11.0346 5.3479 5.31928 4.50243
threshold=75.106345668641396 0.58638083162611099 0.2108846730745346 1.0000000180025095e-35 0.60000000000000009 0.0021607142857142506 0.00059464285714280003 26.666979640510519 0.036518740080639558 0.89547195115495282 0.0031409275008379002 0.41441114212964453 28.453719346448469 1.6743485352778869 0.42210401690336757 0.24093642682774308 0 1.2929345996473132 0.12569437851565277 0.53190061213417128 0.41666666666666669 3.5000000000000004 -2.1791774706183067 1 4.7803571428571434 0.13301079691844608 0.21796835926296385 0.37117830036418659 0.67990921115921155 0.43735528254849487
decision_type=2 2 2 2 2 2 2 2 2 2 2 2 2 2 2 2 1 2 2 2 2 2 2 1 2 2 2 2 2 2
left_child=1 2 4 8 21 10 19 -8 29 22 -3 28 20 14 15 16 -14 -13 -15 -6 -2 24 -7 -24 -1 26 -22 -5 -12 -4
right_child=12 5 3 27 6 9 7 -9 -10 -11 11 17 13 18 -16 -17 -18 -19 -20 -21 25 -23 23 -25 -26 -27 -28 -29 -30 -31
leaf_value=0.064933082121959432 0.078668819375241436 -0.045106446013771943 -0.081350025478442001 0.10096236150815983 -0.011443350895034565 0.038514936040654452 0.0016678032410550208 -0.0049162861922275687 0.039056662649468436 0.070438253603075859 0.02393245142644148 -0.013717257067448764 -0.0048446497454334306 0.02600544792230455 0.064663456467198122 -0.057385604176380223 0.047413089978309987 0.068718217979413326 0.09142041997182232 -0.057888539203654943 0.043267973968123569 0.07932844332942468 -0.00939014224788127 -0.022473602102526774 -0.0095336954293631891 0.063932449821754986 -0.027181081220351691 0.042869426697289992 0.090889689254722281 -0.018521767334388924
leaf_weight=4.876436650753023 13.536049723625181 6.727646753191947 5.2913627475500125 11.869209989905359 181.33800530433655 5.7193441390991202 4825.4471731930971 1276.9316469281912 8.7358721643686277 4.7974344342946997 5.0433342009782782 15.847843497991564 37.438039913773537 12.831951484084131 8.4168439060449582 11.954293563961981 13.055883452296255 4.822566717863082 8.4109978228807432 10.30183796584606 15.296413511037828 9.899680018424986 190.71998016536236 230.1537784487009 7.2920962274074554 10.866843983530996 8.5264011025428754 6.828786998987197 8.4496689289808256 6.7873315215110779
leaf_count=20 55 28 22 48 753 24 19996 5309 36 20 21 66 154 52 34 50 53 20 34 43 62 40 798 967 30 44 35 28 35 28
internal_value=-8.79803e-05 -0.000623011 0.000222909 0.0324245 2.01585e-05 -0.012015 -0.000145151 0.000289196 -0.0105693 -0.0148146 0.0173625 0.0299059 0.02589 0.0154029 0.00416949 -0.00399437 0.00863547 0.0055131 0.0524473 -0.013995 0.0457431 0.0471811 -0.0158013 -0.0165603 0.0201867 0.0325624 0.0178364 0.0803529 0.0665908 -0.0468977
internal_weight=6968.21 6827.88 6355.6 39.5126 6316.09 472.282 6294.02 6102.38 20.8146 431.391 40.8911 34.1634 140.334 92.108 70.8651 62.4482 50.4939 20.6704 21.2429 191.64 48.2257 22.0682 426.593 420.874 12.1685 34.6897 23.8228 18.698 13.493 12.0787
internal_count=28905 28332 26353 162 26191 1979 26101 25305 86 1809 170 142 573 377 291 257 207 86 86 796 196 90 1789 1765 50 141 97 76 56 50
cat_boundaries=0 1 2
cat_threshold=2 1
is_linear=0
shrinkage=0.05


Tree=5
num_leaves=31
num_cat=1
split_feature=20 16 9 9 12 9 19 9 0 5 8 8 16 12 19 22 13 12 26 8 9 16 2 2 2 9 10 16 49 12
split_gain=22.3708 16.8017 20.9744 33.578 16.2228 15.7522 18.7312 14.3065 16.2248 15.3136 14.2805 14.2629 13.8521 13.0994 12.4632 16.9184 12.46 12.2994 24.8386 19.552 12.2962 11.4284 10.6741 16.511 15.7018 7.61541 7.35159 7.09004 6.4973 6.42292
threshold=0.60000000000000009 0.23220149750639282 1688.4046428571432 1247.6196428571432 0.10890525178856476 0.00059464285714280003 28.500000000000004 0.016610714285714253 0.72137063086838171 0.052082066755233254 31.618591466819584 79.736429859944224 0.39000008163865096 0.2908469429540172 2007.0000000000002 0.68967155231711186 0.94518486074193875 0.32549511395006142 1.0000000180025095e-35 66.95885838199635 7.6682142857100005e-05 0.35999382525470797 0.077679451965982818 0.057191329388957456 0.12341453113635246 2796.6267857142861 0.71819286202317945 0.30090164754846005 0 0.41045213385729129
decision_type=2 2 2 2 2 2 2 2 2 2 2 2 2 2 2 2 2 2 2 2 2 2 2 2 2 2 2 2 1 2
left_child=12 2 3 5 10 20 -7 8 22 17 -4 29 16 -13 15 -11 26 18 -9 -19 -2 27 23 -3 -24 -12 -1 -10 -23 -6
right_child=1 7 4 -5 11 6 -8 9 21 14 25 13 -14 -15 -16 -17 -18 19 -20 -21 -22 28 24 -25 -26 -27 -28 -29 -30 -31
leaf_value=-0.032477286327269532 0.0043816860422958353 0.0011174038929793798 -0.043706200340619478 0.061904055536172058 -0.041712177991309746 0.0088579290208937369 0.00097239034451243795 -0.03156968850671129 0.035560928443219085 -0.024748920740978717 0.052361857244156866 -0.041089765726828424 0.088189851461652549 0.064796290066753706 -0.0038702439291742985 0.0018525358810684224 0.065827678714736007 0.020709265133520179 -0.0013738259731893171 -0.036470394166751213 -0.024752362665476407 0.033094090717619172 -0.069351372285374427 0.050825693883587278 0.032957597831434128 -0.0018511186217394387 0.034445954885486137 -0.041516657162993298 0.097509375313428626 0.010269608840337546
leaf_weight=10.225914463400846 57.909848541021347 403.6926206946373 8.9136162251234037 23.453508645296097 71.650862529873848 944.59306989610195 3723.1715963482857 75.242729872465134 6.9996955543756503 258.74305149912834 14.945059880614282 4.8273890018463117 10.374327316880224 6.983448326587677 251.46340216696262 77.255120456218719 9.3095005303621274 106.51807561516762 714.06014159321785 17.242691829800606 95.321140184998512 7.9523357003927213 11.72420893609524 17.340714082121849 5.344539836049079 11.060403287410734 6.676268443465232 5.0314240306615829 8.6087040305137652 6.2761915773153296
leaf_count=42 241 1677 37 97 297 3910 15432 315 29 1077 62 20 42 29 1044 322 38 443 2975 72 397 33 49 72 22 46 27 21 35 26
internal_value=0.000478112 0.00027142 0.00182044 0.0023426 -0.0184175 0.00205053 0.00256938 -0.00363868 0.00399994 -0.00601788 0.0103708 -0.0296744 0.0394208 0.0211166 -0.012316 -0.0186189 0.0196667 -0.00195933 -0.00426231 0.0126795 -0.0137136 0.0404326 0.00160211 0.00318815 -0.0370199 0.0291942 -0.00570178 0.00283834 0.0672626 -0.0374537
internal_weight=6972.91 6936.33 4969.11 4844.45 124.657 4821 4667.76 1967.22 466.694 1500.53 34.9191 89.7379 36.586 11.8108 587.462 335.998 26.2117 913.064 789.303 123.761 153.231 28.5922 438.102 421.033 17.0687 26.0055 16.9022 12.0311 16.561 77.9271
internal_count=28929 28780 20594 20077 517 19980 19342 8186 1938 6248 145 372 149 49 2443 1399 107 3805 3290 515 638 118 1820 1749 71 108 69 50 68 323
cat_boundaries=0 1
cat_threshold=1
is_linear=0
shrinkage=0.05


Tree=6
num_leaves=31
num_cat=0
split_feature=23 16 20 6 2 8 5 10 7 27 9 19 5 3 23 10 12 6 21 10 16 8 10 4 8 23 17 22 22 16
split_gain=25.9442 17.6065 15.6067 19.5796 20.7701 22.342 16.2766 23.8416 17.1446 13.3907 13.3041 12.7883 18.7278 16.9069 16.9086 15.9728 13.3266 10.8763 10.3287 10.1748 10.0067 16.0214 14.4175 12.0563 8.04329 7.96558 7.93316 7.83553 6.36552 8.92024
threshold=82.240990924718687 0.58638083162611099 0.60000000000000009 1.5000000000000002 0.2108846730745346 57.174152989730324 0.052997802366083306 0.5212682191321828 0.077625656517879116 1.0000000180025095e-35 0.00059464285714280003 470.50000000000006 0.0052992028969509513 64.500000000000014 46.582819618860348 0.31662479061976601 0.033951154518170011 41.500000000000007 1.9260331219220512 0.50373599808441616 0.4039941133579848 29.149196060960694 0.79709681826286094 0.037430014641389557 52.133671626014852 58.064472515361444 11.500000000000002 0.61831106095808097 0.29102317836085417 1.0000000180025095e-35
decision_type=2 2 2 2 2 2 2 2 2 2 2 2 2 2 2 2 2 2 2 2 2 2 2 2 2 2 2 2 2 2
left_child=1 2 19 6 10 -6 7 -4 -8 -2 -5 13 15 14 16 -13 -3 24 20 -1 21 23 -23 -11 -14 -16 -17 -21 -20 -30
right_child=9 11 3 4 5 -7 8 -9 -10 18 -12 12 17 -15 25 26 -18 -19 28 27 -22 22 -24 -25 -26 -27 -28 -29 29 -31
leaf_value=-0.014107926371043498 0.070527304515246136 0.041453676153307216 -0.0087566907738029064 -0.011722310771810837 0.10144414984745019 -0.011116871735097279 -0.031145813837346787 0.0052555450009723606 -0.0038701613661987601 -0.024985769449318289 0.0024068299697320751 -0.038271133031228727 -0.010600532084404445 0.053589140613311485 0.066665515206133535 0.074872546733390319 -0.029671165128084487 -0.025384240996854431 0.090230621606299174 0.097203152172654073 0.063063453267907896 -0.030953569554425076 0.038327366994527351 0.048336253077398389 0.010504877741599319 -0.0088354636243831736 0.023902588572301972 0.030420361809884444 -0.01437332842945264 0.071081039061412984
leaf_weight=6.3116966933012035 13.62323312461376 6.7245865315198889 647.6077638566494 172.50920613110065 10.671328336000444 7.3071155548095694 108.46780021488667 570.87125107645988 123.84060619771481 7.1284641474485424 4714.6727080345154 7.1050734072923651 104.59701858460903 7.5004570037126532 7.1963624209165555 12.631532132625578 160.95045763254166 64.371311590075493 6.7145222127437618 7.7075270265340832 7.9166276156902304 33.637079298496246 9.5141631066799146 24.107011720538139 79.158705830574036 6.4661795347929001 20.539638921618462 11.087491616606711 5.937313035130499 5.9668602645397186
leaf_count=26 55 28 2690 719 43 30 451 2372 515 29 19533 30 439 31 30 53 683 269 27 31 32 139 39 98 331 27 86 45 24 24
internal_value=0.000453871 5.88167e-05 0.000752418 0.00059589 0.00210583 0.0556101 -0.0045056 -0.0021878 -0.016635 0.0240431 0.00190684 -0.00920286 -0.00255789 -0.0193182 -0.0223892 0.0289982 -0.0267659 -0.00770986 0.0176552 0.0400206 0.00994166 0.00414396 -0.0155093 0.031417 -0.00148073 0.0307647 0.0436289 0.058441 0.0512504 0.0282787
internal_weight=6972.84 6858.3 6381.05 6355.95 4905.16 17.9784 1450.79 1218.48 232.308 114.545 4887.18 477.241 288.403 188.838 181.338 40.2762 167.675 248.127 100.922 25.1067 82.3033 74.3867 43.1512 31.2355 183.756 13.6625 33.1712 18.795 18.6187 11.9042
internal_count=28929 28462 26455 26353 20325 73 6028 5062 966 467 20252 2007 1208 799 768 169 711 1039 412 102 337 305 178 127 770 57 139 76 75 48
is_linear=0
shrinkage=0.05


Tree=7
num_leaves=31
num_cat=0
split_feature=23 16 9 9 7 17 23 2 2 23 19 10 27 19 5 9 9 5 10 27 6 12 21 16 8 10 22 13 22 16
split_gain=23.4309 15.9293 14.3704 31.576 16.1922 14.8825 14.7311 33.6137 14.5806 13.6562 18.196 12.3901 12.0041 11.906 16.3719 15.8711 19.6416 14.939 13.9083 10.7262 10.4903 10.2967 9.30077 9.04505 14.4301 13.0474 8.51955 6.96649 5.69987 8.03923
threshold=82.240990924718687 0.58638083162611099 1688.4046428571432 1247.6196428571432 0.035104314736671506 9.5000000000000018 26.666979640510519 0.2108846730745346 0.059419484432263407 9.6747740654025343 734.50000000000011 0.88367413267333117 1.0000000180025095e-35 470.50000000000006 0.0052992028969509513 0.0044996428571428002 2.7687000000000013 0.048989439947495057 0.31662479061976601 1.0000000180025095e-35 41.500000000000007 0.10573780480937991 1.9260331219220512 0.4039941133579848 29.149196060960694 0.79709681826286094 0.92961567477365981 0.61802563373990638 0.29102317836085417 1.0000000180025095e-35
decision_type=2 2 2 2 2 2 2 2 2 2 2 2 2 2 2 2 2 2 2 2 2 2 2 2 2 2 2 2 2 2
left_child=1 2 3 6 9 26 7 -1 21 10 -4 13 -2 15 18 17 -17 -3 -15 -8 -16 -6 23 24 27 -26 -5 -14 -24 -30
right_child=12 11 4 5 8 -7 19 -9 -10 -11 -12 -13 22 14 20 16 -18 -19 -20 -21 -22 -23 28 -25 25 -27 -28 -29 29 -31
leaf_value=0.0018314218214494648 0.066770861426049696 -0.020858422730723206 -0.049120805600621854 0.090346738052838937 0.028159824282550528 -0.01289684505481647 0.0087858007255280767 0.064954079784513188 -0.065587625763578239 -0.064523968684158231 0.07206804320937775 0.061638621542075993 -0.016201198667690205 -0.036715168146242955 -0.0019969522295357665 -0.040241201570499541 -0.0055033387606353264 0.065490657620427203 0.0400128785179244 -0.0055192000964350667 -0.025685556888174227 -0.0083742214099702048 0.085440619287217454 0.059961252548621662 -0.029570635561210132 0.036229078960566485 0.013826973752782749 0.041673163207703603 -0.01368647097217205 0.067379275041839604
leaf_weight=4879.2946747690439 13.674307018518446 9.7797997146844882 7.6625229418277723 16.850440397858627 24.831756874918938 6.300791695713996 147.57533471286297 21.087461888790131 9.1124957203865034 24.689797893166542 5.0527035892009735 6.0510136783123007 6.361538931727412 7.0417423695325843 181.98732858896255 90.884404256939888 74.35387410223484 9.9636525809764844 32.965460002422333 1149.1208309531212 63.05615359544754 85.056443989276886 6.7411890923976925 7.9150461405515662 33.458955079317093 9.5663200318813306 4.8884900510311118 24.967341959476471 5.9287546426057798 5.9848938435316086
leaf_count=20212 55 41 32 69 103 26 613 85 38 103 21 25 26 30 763 389 316 41 137 4779 265 354 27 32 139 39 20 101 24 24
internal_value=0.000431189 5.55977e-05 0.000714581 0.00109152 -0.0142472 0.0539395 0.000850727 0.00210539 -0.00516597 -0.042914 -0.000386736 -0.00876535 0.0228435 -0.00969526 -0.00326139 -0.0195755 -0.0246529 0.0225766 0.0263253 -0.00388676 -0.00812104 -5.49607e-05 0.016782 0.00944995 0.00393253 -0.0147746 0.0735106 0.0297481 0.0486274 0.0268431
internal_weight=6972.21 6857.61 6381.52 6225.12 156.406 28.0397 6197.08 4900.38 119.001 37.405 12.7152 476.083 114.598 470.032 285.051 184.982 165.238 19.7435 40.0072 1296.7 245.043 109.888 100.924 82.2692 74.3542 43.0253 21.7389 31.3289 18.6548 11.9136
internal_count=28929 28462 26455 25804 651 115 25689 20297 495 156 53 2007 467 1982 1195 787 705 82 167 5392 1028 457 412 337 305 178 89 127 75 48
is_linear=0
shrinkage=0.05


Tree=8
num_leaves=30
num_cat=0
split_feature=23 20 16 6 2 8 5 10 23 19 10 9 19 5 9 27 5 21 16 8 10 4 22 17 10 22 16 13 12
split_gain=21.1905 15.414 14.3557 16.9317 17.3488 19.5377 14.7191 19.6434 15.5449 12.5747 11.6398 11.5715 12.9874 16.8409 15.577 10.8009 10.5572 8.40373 8.19303 13.0076 11.8135 10.6858 7.91742 7.03852 6.4346 5.1431 7.26664 4.84609 2.40633
threshold=82.240990924718687 0.60000000000000009 0.58638083162611099 1.5000000000000002 0.2108846730745346 57.174152989730324 0.054856462415612657 0.5212682191321828 31.362326175809731 28.500000000000004 0.50373599808441616 0.0014224999999999503 620.50000000000011 0.0052992028969509513 2.7687000000000013 1.0000000180025095e-35 0.018611988489035305 1.9260331219220512 0.4039941133579848 29.149196060960694 0.79709681826286094 0.037430014641389557 0.6449371630397005 18.500000000000004 0.44493327367845964 0.29102317836085417 1.0000000180025095e-35 1.0160623518554006 0.41045213385729129
decision_type=2 2 2 2 2 2 2 2 2 2 2 2 2 2 2 2 2 2 2 2 2 2 2 2 2 2 2 2 2
left_child=1 10 3 6 9 -6 7 -3 -8 -5 -1 16 14 -14 -13 28 23 18 19 21 -21 -17 -12 -4 -18 -19 -27 -24 -2
right_child=15 2 11 4 5 -7 8 -9 -10 -11 22 12 13 -15 -16 17 24 25 -20 20 -22 -23 27 -25 -26 26 -28 -29 -30
leaf_value=-0.015610404501165199 0.079619688374744299 -0.0080148526287844978 -0.02830068296870572 0.0076075571893814489 0.093537400358468137 -0.011600831804136232 -0.029225179493505365 0.0046563760640664364 -0.0026737181301520075 0.00065068492919430831 0.090755731786611435 -0.032551122881778354 0.031757031076009606 -0.0079127061667487383 -0.0037969527012557862 -0.024929862982546978 0.077924852639677911 0.081228654547175538 0.057114488785782985 -0.028255002055384761 0.034278995297294362 0.044037613256176195 -0.0086304940045145752 0.041447542031032847 0.011916429918205051 -0.013032791832383631 0.064029924850779116 0.059338266203050487 0.032848423114720894
leaf_weight=7.2529325336217907 8.7239374369382841 652.39751976728439 11.780041947960855 771.59289917349815 10.708156093955042 7.3099311888217917 111.58191910386086 575.18191312253475 109.79199743270874 4118.2189289182425 9.4508656561374682 111.0402322858572 30.393573299050331 216.82011811435223 82.534930884838104 7.1267235726118114 8.7985296100378019 6.741279378533366 7.8994131833314887 33.27545565366745 9.6095288395881635 24.268883317708969 4.9286283403635007 5.0727104842662802 6.7242317348718634 5.9200561791658384 5.98814657330513 5.2013575434684753 4.9679218381643286
leaf_count=30 35 2715 49 3194 43 30 466 2389 458 17058 38 478 126 911 351 29 36 27 32 139 39 98 20 21 28 24 24 21 20
internal_value=0.0004094 5.22558e-05 -9.58816e-05 0.000528835 0.00193166 0.0507783 -0.00421909 -0.00207378 -0.0160865 0.00174961 0.0378034 -0.00849762 -0.0106252 -0.00300444 -0.0203253 0.0217305 0.020259 0.0159691 0.00898977 0.00373479 -0.0140791 0.028194 0.0578212 -0.00689075 0.0499103 0.0462452 0.025513 0.026019 0.0633731
internal_weight=6971.3 6856.78 6829.95 6356.78 4907.83 18.0181 1448.95 1227.58 221.374 4889.81 26.8338 473.164 440.789 247.214 193.575 114.521 32.3755 100.829 82.18 74.2806 42.885 31.3956 19.5809 16.8528 15.5228 18.6495 11.9082 10.13 13.6919
internal_count=28929 28462 28353 26353 20325 73 6028 5104 924 20252 109 2000 1866 1037 829 467 134 412 337 305 178 127 79 70 64 75 48 41 55
is_linear=0
shrinkage=0.05


Tree=9
num_leaves=30
num_cat=0
split_feature=23 20 16 6 9 21 0 9 7 9 0 32 13 27 7 9 12 21 16 7 14 7 16 9 22 21 12 22 13
split_gain=19.1954 13.9219 12.9902 15.292 14.2409 13.9561 12.4245 12.424 12.8078 11.637 11.0952 10.4017 11.3265 9.77967 9.05282 18.8882 10.2293 7.74116 8.40077 14.1385 14.8327 7.82329 7.14928 6.05865 4.68529 3.83349 2.19055 0.811625 0.462848
threshold=82.240990924718687 0.60000000000000009 0.58638083162611099 1.5000000000000002 0.0093710714285713519 0.26581847718975643 0.068579840709043466 0.00059464285714280003 0.026874119509534753 0.00084153214285710004 0.87179548907637694 1.0000000180025095e-35 0.88576472227115066 1.0000000180025095e-35 0.045478835658134105 22.23142857142857 0.21101108841026023 1.5687179446225457 0.4039941133579848 0.15079638506645252 0.58333333333333337 0.10762261453207421 0.11099062092328991 0.019794642857142806 0.29102317836085417 1.9260331219220512 0.41045213385729129 0.77182647006688232 0.64567006968688012
decision_type=2 2 2 2 2 2 2 2 2 2 2 2 2 2 2 2 2 2 2 2 2 2 2 2 2 2 2 2 2
left_child=1 11 3 4 6 -6 -3 8 -5 -9 14 12 -1 26 16 -16 -4 18 19 21 -21 -15 24 -12 25 -19 -2 -26 -13
right_child=13 2 10 7 5 -7 -8 9 -10 -11 23 28 -14 17 15 -17 -18 22 -20 20 -22 -23 -24 -25 27 -27 -28 -29 -30
leaf_value=-0.027999249793690523 0.075925119423581808 0.027300094452182871 -0.0064573292345383492 -0.0055474497626800193 0.0044310398939877904 -0.006299846420218508 -0.023381065439587612 0.02641009022918488 -0.043649952001855119 0.0020590284848026452 0.077538180498428227 0.08744057138897729 0.055414530348838975 0.0050562847662556244 -0.027926149264648356 0.016453823887269087 0.03628896013218124 0.01354177312093067 0.054486999551938357 0.012232212046348556 -0.052582871509557254 0.059527420947961776 0.074771868565892505 0.0070368361790705426 -0.018823207148152381 0.073463984325608009 0.031202964161596177 0.0092718961166408289 0.057563828164501923
leaf_weight=8.7292153239250201 8.6964941769838315 13.125595837831495 291.76084357500076 146.24658638238907 479.27867102622986 821.90402285754681 133.37984623014927 49.521662846207619 25.989064142107964 4687.583582341671 5.3936919420957548 5.47820693254471 7.4042509943246833 17.22867771983147 123.41842928528786 29.527361199259758 14.575026348233221 5.9562850296497398 7.8718158751726142 16.910387814044952 18.076801285147667 10.832636177539824 8.6818516850471479 7.2885198295116425 4.9290345311164838 5.2305556535720825 4.97352011501789 4.9336073845624924 5.2193975746631622
leaf_count=36 35 55 1229 610 1988 3427 558 205 109 19401 22 22 30 70 532 125 61 24 32 70 76 44 35 31 20 21 20 20 21
internal_value=0.000389198 4.94911e-05 -9.12702e-05 0.000502232 -0.00401246 -0.00234334 -0.0187909 0.00183462 -0.0113478 0.0023152 -0.00809435 0.0359287 0.01008 0.0206998 -0.00938002 -0.0193204 -0.00439603 0.0152089 0.00612581 0 -0.0211677 0.0263983 0.0366145 0.037784 0.020361 0.0424048 0.0603619 -0.00431527 0.0739948
internal_weight=6970.15 6855.82 6828.99 6357.03 1447.69 1301.18 146.505 4909.34 172.236 4737.11 471.964 26.8311 16.1335 114.322 459.282 152.946 306.336 100.652 70.9203 63.0485 34.9872 28.0613 29.7313 12.6822 21.0495 11.1868 13.67 9.86264 10.6976
internal_count=28929 28462 28353 26353 6028 5415 613 20325 719 19606 2000 109 66 467 1947 657 1290 412 292 260 146 114 120 53 85 45 55 40 43
is_linear=0
shrinkage=0.05


Tree=10
num_leaves=31
num_cat=0
split_feature=12 8 4 23 27 11 2 2 4 2 2 19 4 16 19 17 10 21 12 10 10 21 8 22 21 21 23 17 19 12
split_gain=21.366 19.0638 13.2259 13.1468 22.8608 12.5516 34.9676 35.8561 27.1988 21.7422 16.4521 16.2968 16.2283 16.3945 13.7782 13.0972 11.9995 11.0453 10.9576 9.85702 9.3242 9.19643 13.4159 8.65113 8.10643 7.84922 7.25458 6.08059 4.5118 3.7681
threshold=0.64950980538629521 51.746050681377532 0.044759182392848505 82.240990924718687 1.0000000180025095e-35 0.21215319424585863 0.030806416503886352 0.076211182187491802 0.027930732101336304 0.067297199927971812 0.026729619846238204 404.50000000000006 0.042189098074001709 0.32935754111800103 28.500000000000004 22.500000000000004 0.24765693971745267 1.7032364404042564 0.020447537172841954 0.73753292502665624 0.59223103352390749 2.1539136251713003 81.926757422193191 0.79802046428203888 2.0269302912498159 0.8393632991240686 92.5398120135536 16.500000000000004 58.500000000000007 0.49137891722836768
decision_type=2 2 2 2 2 2 2 2 2 2 2 2 2 2 2 2 2 2 2 2 2 2 2 2 2 2 2 2 2 2
left_child=3 25 -3 5 -5 12 10 9 -9 -8 11 -7 15 14 -14 19 24 -15 -17 -1 -4 22 -22 -23 28 27 -18 -2 -6 -28
right_child=1 2 20 4 16 6 7 8 -10 -11 -12 -13 13 17 -16 18 26 -19 -20 -21 21 23 -24 -25 -26 -27 29 -29 -30 -31
leaf_value=-0.00021209475266146605 0.0047621654005300627 0.066854248382050993 0.067980614069322487 0.085914784742787506 -0.0038854125613320607 -0.0040706430785199723 0.015426495754059239 0.022436416260219371 -0.017638004675598017 0.057741577336424488 -0.065798975223394535 -0.01625002706952126 0.015848501547128122 0.00047607780747349783 0.0040342321026399447 -0.022915201052373001 0.016305148212076528 -0.017153337822262429 0.033145977184271751 -0.006509490850496083 -0.029303045878701042 0.0624294958183522 0.030934037602936448 -0.007301577369811474 0.079485587949127745 0.083619627810971597 -0.070428169489025125 0.069223291274328802 0.028254669985681231 -0.015568741803616707
leaf_weight=1917.6253696382046 9.3337166458368319 8.7358745783567411 4.8731371313333502 11.125749632716177 18.267231717705727 940.1229622811079 174.89347021281719 58.777893200516701 150.17583566904068 36.857322871685028 12.198698818683622 389.00622819364071 297.2858707010746 282.48948450386524 1466.2488308846951 10.634485200047491 7.3022975027561214 129.16236867010593 44.741370365023613 920.42083421349525 36.703904837369919 8.8612476885318774 12.18375627696514 8.5692728608846647 5.4417641609907141 13.948635891079901 6.957577705383299 6.137591838836669 26.090960934758186 6.260687991976738
leaf_count=7951 39 36 20 45 75 3919 727 244 627 153 51 1620 1229 1179 6073 44 30 539 186 3818 153 36 50 35 22 57 29 25 106 26
internal_value=-8.83376e-06 0.0219093 0.00914013 -0.000356608 0.0195989 -0.000595566 -0.004231 0.00833868 -0.00633596 0.0228392 -0.00817751 -0.00763999 0.000667316 0.00393096 0.00602943 -0.00178451 0.00892863 -0.00504611 0.0222679 -0.00225635 0.00190407 -0.00297108 -0.0141562 0.0280167 0.0222273 0.0562824 -0.0230539 0.0309358 0.0149276 -0.045132
internal_weight=7021.43 109.347 79.9272 6912.09 81.4463 6830.64 1762.03 420.705 208.954 211.751 1341.33 1329.13 5068.61 2175.19 1763.53 2893.42 70.3205 411.652 55.3759 2838.05 71.1913 66.3182 48.8877 17.4305 49.8 29.4199 20.5206 15.4713 44.3582 13.2183
internal_count=29144 451 330 28693 333 28360 7341 1751 871 880 5590 5539 21019 9020 7302 11999 288 1718 230 11769 294 274 203 71 203 121 85 64 181 55
is_linear=0
shrinkage=0.05


Tree=11
num_leaves=24
num_cat=0
split_feature=23 20 2 23 5 11 2 2 2 11 9 29 12 13 12 12 12 8 8 19 12 1 1
split_gain=19.8472 12.2481 10.1651 19.4938 14.0145 10.3094 21.9295 40.2664 16.5302 16.5255 13.4433 9.39829 7.84679 8.26595 7.74635 7.53025 11.2553 6.32667 6.30713 3.67685 2.398 2.09862 1.65015
threshold=139.56485377577323 0.60000000000000009 0.2108846730745346 26.943295700903231 0.036518740080639558 0.21215319424585863 0.030806416503886352 0.076211182187491802 0.12634332119693503 1.1605121594506917 1688.4046428571432 1.0000000180025095e-35 0.47067649574262488 0.59479074195064474 0.27913978371173459 0.59400228744406436 0.4367300488272074 28.181709952594108 51.958189491321654 94.500000000000014 0.091216170770323554 0.18560574475681516 0.16377191716710543
decision_type=2 2 2 2 2 2 2 2 2 2 2 2 2 2 2 2 2 2 2 2 2 2 2
left_child=1 15 5 11 21 8 9 -8 10 -7 -3 -4 13 -2 -10 16 -1 20 -17 -20 -15 -5 -13
right_child=12 2 3 4 -6 6 7 -9 14 -11 -12 22 -14 17 -16 18 -18 -19 19 -21 -22 -23 -24
leaf_value=0.051697456400767353 -0.025641655271986176 0.0013096978719551024 0 -0.024432554543919308 0.042123336460958741 -0.007963049982150909 0.021476971532861086 -0.010396382821729999 -0.064765951927233126 0.015502515026951781 -0.015411883085100248 0.051881098049030065 0.086714682266330848 0.040892383382497274 -0.014070832965105402 0.084058262446029167 -0.040704815174120605 0.0037270993670757927 -0.0013197582363370969 0.052530082007277761 0.094077272613055499 -0.069759441616176296 0.091769803810281117
leaf_weight=5.8536207377910596 5.6063087284565034 4955.8920076042414 4.9149027615785608 6.1799051165580767 7.2865060269832602 1331.5162433236837 212.87316915392876 184.9930018633604 13.058512434363367 79.28320024907589 123.05047944188118 5.2146856188774118 7.1417503803968421 4.9393951147794741 18.580141395330429 7.9019882380962398 7.2794941365718842 6.2794363498687735 6.0323197245597822 6.1848879158496857 4.9577081799507141 5.2090592384338379 9.9059096127748472
leaf_count=24 23 20544 20 26 30 5557 881 774 54 329 515 21 29 20 77 32 30 26 25 25 20 22 40
internal_value=-8.34059e-06 -0.000180347 -0.000325947 0.0251889 -0.0113258 -0.000469779 -0.00371434 0.00664559 0.000677562 -0.0066398 0.000903295 0.0593605 0.0412516 0.0257894 -0.0352904 0.0300456 0.000181824 0.0439691 0.0491951 0.0257406 0.0687087 -0.046026 0.078773
internal_weight=7020.13 6991.21 6957.96 38.711 18.6755 6919.25 1808.67 397.866 5110.58 1410.8 5078.94 20.0355 28.9246 21.7828 31.6387 33.2523 13.1331 16.1765 20.1192 12.2172 9.8971 11.389 15.1206
internal_count=29144 29026 28890 159 78 28731 7541 1655 21190 5886 21059 81 118 89 131 136 54 66 82 50 40 48 61
is_linear=0
shrinkage=0.05


Tree=12
num_leaves=31
num_cat=0
split_feature=12 8 6 19 9 19 7 4 9 9 16 21 21 19 11 21 12 11 4 23 12 21 22 22 11 21 8 22 1 8
split_gain=18.3225 16.4466 14.0899 27.122 34.5228 25.5121 23.9452 24.6516 22.999 19.7877 18.0653 16.7004 15.2676 22.5232 14.3044 15.7314 14.0883 13.9686 11.7651 10.8726 16.51 12.9863 10.031 7.78436 7.33197 7.91295 11.9921 7.73853 7.18488 13.1975
threshold=0.64950980538629521 51.746050681377532 3.5000000000000004 395.50000000000006 9.6232142857142886 328.50000000000006 0.032820211680810805 0.043888172307188306 115.16678571428567 0.069227142857142709 0.56405067087496252 1.6986052711906334 0.81836073061711934 500.50000000000006 0.054683572391214304 3.0342829209491384 0.13762760771503255 1.0766173463022972 0.044759182392848505 20.644749854085685 0.095106253142977271 2.0155467252702501 0.26050584266951587 0.14829541491879228 0.56072249090432391 2.1539136251713003 81.926757422193191 0.79802046428203888 0.0080599751047035519 23.521154423272524
decision_type=2 2 2 2 2 2 2 2 2 2 2 2 2 2 2 2 2 2 2 2 2 2 2 2 2 2 2 2 2 2
left_child=2 -2 3 4 5 10 7 -6 12 -7 -1 23 13 -5 28 19 -8 -14 -3 20 -16 -21 -13 -10 25 26 -20 -27 29 -4
right_child=1 18 14 8 6 9 16 -9 11 -11 -12 22 17 -15 15 -17 -18 -19 24 21 -22 -23 -24 -25 -26 27 -28 -29 -30 -31
leaf_value=-0.0039034299652174614 0.052196736954343764 0.062549504229643879 -0.060603062704553456 -0.074795739746558218 -0.041904462543708679 0.072765754005381988 0.00027994738061034745 0.025107588572110179 -0.0072995015171332823 0.0072290013703633351 -0.026806748864333194 0.028057944755381564 -0.0050836263937823669 -0.014548834857689092 0.0041108625836531578 -0.039016112813812558 0.019047576616407998 0.046185742778823556 -0.02785532138168012 -0.0082578229388358682 0.016421625415006594 0.018834169541823726 -0.024121772053467896 -0.062202156459261949 0.058881624555559599 0.058404133100927291 0.029088927431144204 -0.0075473027376177157 0.00040793333758104447 -0.0050983044569308219
leaf_weight=1178.198580160737 29.454220235347748 8.8193943053483945 10.872877091169356 17.715741947293282 40.211261376738548 17.870209857821465 137.11072260141373 20.629027128219604 7.9292493909597388 32.705955907702446 92.914507433772087 11.349943935871122 602.37667617201805 124.53269875049591 1060.7379497289658 19.974166139960289 374.82367305457592 13.469968840479849 36.233393415808678 240.26668272912502 367.24324376881123 54.043385535478592 45.876935631036758 41.414727792143822 5.0760155171155921 8.8520436882972735 12.237061470746992 8.5674745142459852 1910.0108781158924 487.44480726122856
leaf_count=4901 121 36 45 75 168 74 570 86 33 137 404 48 2515 521 4384 83 1556 56 152 996 1518 224 193 173 21 36 50 35 7911 2022
internal_value=-7.76609e-06 0.0202994 -0.000329825 -0.00309961 0.000247012 -0.0041936 0.0105015 -0.0190968 -0.010437 0.0305818 -0.0055835 -0.0321897 -0.00736859 -0.0221344 0.00151023 0.00496162 0.0140319 -0.00394681 0.00841067 0.00547679 0.00728133 -0.0032613 -0.0136547 -0.0535134 0.00153359 -0.00289114 -0.0133457 0.0258238 -0.000984644 -0.00633132
internal_weight=7018.96 109.24 6909.72 2759.13 1894.46 1321.69 572.775 60.8403 864.666 50.5762 1271.11 106.571 758.095 142.248 4150.59 1742.27 511.934 615.847 79.7854 1722.29 1427.98 294.31 57.2269 49.344 70.966 65.89 48.4705 17.4195 2408.33 498.318
internal_count=29144 451 28693 11510 7896 5516 2380 254 3614 211 5305 447 3167 596 17183 7205 2126 2571 330 7122 5902 1220 241 206 294 273 202 71 9978 2067
is_linear=0
shrinkage=0.05


Tree=13
num_leaves=31
num_cat=0
split_feature=12 8 6 7 21 9 4 13 11 9 8 11 21 7 17 2 8 2 1 4 12 14 31 6 10 10 21 8 9 21
split_gain=16.5653 14.7392 12.7303 16.253 21.7016 23.78 23.6893 20.5338 23.4232 18.3851 13.665 12.8971 14.2894 11.3318 11.592 10.8773 21.0422 13.9571 10.6322 10.5341 10.4131 15.3166 15.1542 9.44349 7.42777 7.36437 7.21872 10.9195 7.55915 7.0248
threshold=0.64950980538629521 51.746050681377532 3.5000000000000004 0.054206466078038758 0.26581847718975643 3.4033500000000005 0.053695851472983606 0.7122801103994757 1.0766173463022972 0.0038921428571428002 65.86481349601334 0.054683572391214304 3.0342829209491384 0.022466584791298903 9.5000000000000018 0.16048778741821532 58.385125052610071 0.10193288479986082 0.046936349669683457 0.044759182392848505 0.40228435869275209 0.41666666666666669 1.0000000180025095e-35 2.5000000000000004 0.59223103352390749 0.99358507599353252 2.1539136251713003 81.926757422193191 24.670357142857103 1.9260331219220512
decision_type=2 2 2 2 2 2 2 2 2 2 2 2 2 2 2 2 2 2 2 2 2 2 2 2 2 2 2 2 2 2
left_child=2 29 3 13 5 6 -5 8 -6 -9 -7 25 20 14 18 17 -17 -15 -1 -3 21 -13 -22 -16 -21 -4 27 -26 -28 -2
right_child=1 19 11 4 7 10 -8 9 -10 -11 -12 12 -14 15 23 16 -18 -19 -20 24 22 -23 -24 -25 26 -27 28 -29 -30 -31
leaf_value=-0.0059002586600111415 0.033244524998895568 0.059044095062384727 -0.0011588988959199615 0.014941115566102201 -0.018696929216924708 0.027599868144397462 -0.006894122717959885 -0.069654897632221963 0.041324584754684736 0.00095772602961132218 -0.0011061010345679095 -0.025947577993478563 -0.0373643174961217 -0.0098464154698703829 -0.049094711498453285 0.072671473663718053 -0.051063102459593793 -0.052249834064315596 0.026678718060398367 0.060742867622009561 0.01470961355759479 0.0065095607737194949 -0.047788126272671615 0.01298032195122617 -0.026709054292129664 0.033634695276585552 0.04949355776810483 0.027545547239800128 -0.018214429078965744 0.087891387102166429
leaf_weight=42.150979682803154 21.014826297760013 8.8801026940345746 2392.6755482107401 190.59726323187351 299.47229310870171 161.91524846851826 356.07834249734879 9.246870279312132 17.046480745077133 668.99548421800137 55.260617807507515 37.013790845870972 19.822639986872673 835.05745603144169 15.263973608613014 10.228521630167959 5.0171796530485144 19.837637320160866 60.73814645409584 4.8255652636289588 17.114213854074478 1647.8603067696095 21.9020706564188 9.9586989879608154 36.258799284696579 15.19767691195011 11.054567486047747 12.280991226434706 6.3372898697853079 8.5320379137992841
leaf_count=176 86 36 9915 793 1256 671 1485 39 71 2798 228 153 83 3488 64 42 21 83 253 20 71 6807 91 42 153 63 45 50 26 35
internal_value=-8.00319e-06 0.0193057 -0.000314244 -0.00294867 -5.32766e-05 0.00628189 0.000710881 -0.00492305 -0.0154366 -7.73228e-06 0.0202754 0.00143397 0.00470914 -0.00804394 0.00581122 -0.01009 0.0315587 -0.0108422 0.0132906 0.008016 0.00519798 0.00579207 -0.0202786 -0.0244336 0.00146707 -0.000935829 -0.00288105 -0.012851 0.024573 0.0494364
internal_weight=7017.64 109.184 6908.45 2756.87 1758.61 763.851 546.676 994.761 316.519 678.242 217.176 4151.59 1743.71 998.253 128.112 870.141 15.2457 854.895 102.889 79.6373 1723.89 1684.87 39.0163 25.2227 70.7572 2407.87 65.9316 48.5398 17.3919 29.5469
internal_count=29144 451 28693 11510 7341 3177 2278 4164 1327 2837 899 17183 7205 4169 535 3634 63 3571 429 330 7122 6960 162 106 294 9978 274 203 71 121
is_linear=0
shrinkage=0.05


Tree=14
num_leaves=31
num_cat=0
split_feature=12 8 6 19 9 19 7 4 9 9 16 21 21 19 2 0 11 21 12 31 14 4 2 16 4 5 4 13 19 16
split_gain=15.0038 13.2985 11.5 23.6445 30.5885 23.1007 20.9781 22.5284 20.9231 17.3704 16.3886 15.4638 14.0064 21.177 13.93 12.7334 11.6413 14.3163 13.344 14.7535 11.7289 9.59194 8.86071 8.13131 9.12929 10.0889 9.93093 7.09316 6.84475 6.74205
threshold=0.64950980538629521 51.746050681377532 3.5000000000000004 395.50000000000006 9.6232142857142886 328.50000000000006 0.032820211680810805 0.043888172307188306 115.16678571428567 0.069227142857142709 0.57943925233644966 1.6986052711906334 0.81836073061711934 500.50000000000006 0.092179484285963412 0.81650492235415373 0.04542676660443281 3.235893976445456 0.40228435869275209 1.0000000180025095e-35 0.41666666666666669 0.078768961389421216 0.030220368929653702 0.25547722573309295 0.043888172307188306 0.055312896407611258 0.04058570768034591 1.481282083228548 269.50000000000006 0.39000008163865096
decision_type=2 2 2 2 2 2 2 2 2 2 2 2 2 2 2 2 2 2 2 2 2 2 2 2 2 2 2 2 2 2
left_child=2 -2 3 4 5 10 7 -6 12 -7 -1 27 13 -5 -14 -8 23 18 20 -20 -18 -3 -13 24 26 -26 -4 -10 -19 -23
right_child=1 21 16 8 6 9 15 -9 11 -11 -12 22 14 -15 -16 -17 17 28 19 -21 -22 29 -24 -25 25 -27 -28 -29 -30 -31
leaf_value=-0.0036502930663427978 0.047004802156951908 0.045932863981427395 -0.0017724180121045847 -0.072513771748200687 -0.039863238254319845 0.068388911351779075 0.018663956596039127 0.024253985212238691 -0.059740578913922752 0.0071843303081224929 -0.026143718296840281 -0.0038799209562335418 -0.0052891621145338573 -0.013610483771404482 0.027787915451577262 0.0017624289257262519 -0.021666118393160877 0.010140283045450886 0.0094380926598163998 -0.049376442238596503 0.0057173953586667535 -0.0059047395046485946 -0.057472269188208858 -0.0065808592033692048 0.03276478241196288 0.003970029407410469 -0.052459170974819641 -0.0076760326937394697 -0.051726990934801931 0.044622448547252946
leaf_weight=1181.782931253314 29.541459947824478 13.467096537351607 1022.2582039088011 17.393060967326164 39.780426174402237 18.067090228199959 348.35917791724205 20.686439260840416 40.590007185935974 32.710374176502228 86.959633260965347 47.788600668311119 580.9874592423439 123.9963711053133 33.540372967720032 164.86732409894466 39.754501178860664 5.8840721100568798 19.078878208994865 23.654078766703606 1906.7326381057501 58.667094841599464 9.1636487990617734 529.16254040598869 32.188833683729172 547.48165521025658 9.6650031208991987 8.1029042005538923 16.678731814026833 7.3367215096950522
leaf_count=4923 121 55 4237 75 168 74 1445 86 172 137 382 202 2431 521 140 681 165 25 79 99 7871 244 39 2201 133 2263 40 34 70 31
internal_value=-8.01002e-06 0.0183875 -0.000299317 -0.00280469 0.000317764 -0.00387015 0.00995787 -0.0178416 -0.00967106 0.0291514 -0.00519787 -0.0305169 -0.00674742 -0.020938 -0.00347148 0.0132457 0.00136156 0.00409294 0.00454514 -0.0230402 0.00515447 0.00764118 -0.0126762 -0.001203 0.000559996 0.00558299 -0.00225703 -0.0512126 -0.0353987 -0.000153693
internal_weight=7016.33 109.012 6907.31 2754.78 1893.21 1319.52 573.693 60.4669 861.562 50.7775 1268.74 105.645 755.917 141.389 614.528 513.227 4152.54 2011.78 1989.22 42.733 1946.49 79.4709 56.9522 2140.76 1611.59 579.67 1031.92 48.6929 22.5628 66.0038
internal_count=29144 451 28693 11510 7896 5516 2380 254 3614 211 5305 447 3167 596 2571 2126 17183 8309 8214 178 8036 330 241 8874 6673 2396 4277 206 95 275
is_linear=0
shrinkage=0.05


Tree=15
num_leaves=31
num_cat=1
split_feature=12 21 11 6 29 2 7 13 9 5 8 49 16 9 17 24 4 1 22 8 8 11 23 7 6 22 4 9 5 9
split_gain=12.2247 13.7727 17.5427 13.1445 20.4243 31.973 28.5345 31.0406 24.8169 21.4157 20.5485 18.3697 18.0587 13.9438 12.6583 12.4336 12.1257 11.7762 11.7147 13.2285 11.1835 10.8451 20.5661 10.6185 10.5904 10.5601 10.419 12.768 9.50733 9.3212
threshold=0.64950980538629521 2.0966606886167862 0.56072249090432391 3.5000000000000004 1.0000000180025095e-35 0.16048778741821532 0.070930882999091407 0.96472320962237301 0.086567857142857113 0.24392797028440433 28.181709952594108 0 0.22283124021349643 0.00050107142857135003 18.500000000000004 -1.792970356258887 0.27525457690763949 0.0054899746790477511 0.8699674551004678 28.453719346448469 71.332499294959433 0.085063042801599056 12.450763145316552 0.098279613149756861 35.500000000000007 0.80873293688149162 0.0059259260334147005 1.036785714285714 0.13461750582504609 0.13849999999999998
decision_type=2 2 2 2 2 2 2 2 2 2 2 1 2 2 2 2 2 2 2 2 2 2 2 2 2 2 2 2 2 2
left_child=3 2 23 4 6 9 13 11 -7 10 -6 -8 17 -1 15 24 -11 18 19 -5 -15 -16 -23 29 -14 -3 27 -19 -9 -2
right_child=1 25 -4 12 5 8 7 28 -10 16 -12 -13 14 20 21 -17 -18 26 -20 -21 -22 22 -24 -25 -26 -27 -28 -29 -30 -31
leaf_value=-0.05985852868006445 -0.026537061911114032 0.069235444916662364 0.054861434878166665 -0.032867951561153061 -0.015965186033938959 0.080069269561366119 0.012499330694186532 0.014767459349409357 -0.012802984940952009 -0.050122601220702445 0.0020272493578953337 -0.019891946908695148 0.070989394610624576 -0.010979541739322722 -7.0713484297590907e-05 -0.006377183476408416 0.019162362169134049 0.0042030255565893666 -0.026428571531535678 0.0034120987183411215 -0.029540966700781726 0.04448367705360437 -0.012966029901660845 -0.020158618948908084 -0.006365172655578369 0.0033859234095777037 0.0063325049032935572 -0.015770627909306834 0.055559783539296151 0.042598254560239447
leaf_weight=18.017530456185341 6.7616644203662899 18.475824207067493 15.066537469625471 28.242129281163216 175.28713202476501 21.74819378554821 61.33920481801033 133.34288428723812 10.559364795684813 32.238772377371788 1665.3606212288141 151.0290270447731 9.6135331541299838 373.81218892335892 135.43146413564682 964.8399433195591 7.6727373450994483 222.73892012238503 53.777821689844131 220.87124039232731 104.36685113608837 44.270326659083366 23.774549067020416 41.123091995716095 7.8974225819110861 9.3166131377220136 2301.0046819597483 124.55666817724705 16.068605273962021 16.319565340876579
leaf_count=77 28 76 62 117 732 89 255 555 44 135 6965 635 40 1565 562 4010 32 921 223 914 436 183 100 172 33 38 9499 515 67 67
internal_value=0.000424644 0.0171832 0.00646854 0.000163939 -0.00250028 0.000372277 -0.0089098 0.00175648 0.0496149 -0.000473634 0.000310317 -0.0105112 0.00194957 -0.0166955 -0.00325933 -0.00561346 -0.0366634 0.00404432 -0.00528559 -0.000692467 -0.0150465 0.00807861 0.0243481 -0.0048775 0.0359806 0.0474318 0.00511344 -0.00294856 0.0192222 0.0221022
internal_weight=7014.93 107.063 79.2709 6907.86 2770.84 1912.87 857.976 361.78 32.3076 1880.56 1840.65 212.368 4137.02 496.197 1185.83 982.351 39.9115 2951.19 302.891 249.113 478.179 203.476 68.0449 64.2043 17.511 27.7924 2648.3 347.296 149.411 23.0812
internal_count=29147 443 329 28704 11587 7997 3590 1512 133 7864 7697 890 17117 2078 4928 4083 167 12189 1254 1031 2001 845 283 267 73 114 10935 1436 622 95
cat_boundaries=0 1
cat_threshold=1
is_linear=0
shrinkage=0.05


Tree=16
num_leaves=31
num_cat=1
split_feature=23 6 10 16 29 2 12 3 6 19 16 11 14 9 9 22 19 9 23 5 21 50 17 11 27 11 16 19 0 19
split_gain=11.2803 12.5145 36.443 15.9136 15.0609 23.0014 20.1165 28.6645 25.0983 16.2429 13.4856 13.4327 12.9746 12.3635 35.6946 17.1727 12.0776 9.63576 13.6276 12.3041 9.54472 9.43056 9.59686 9.30798 13.0586 11.5706 8.77002 8.60637 13.1099 12.0795
threshold=82.240990924718687 1.0000000180025095e-35 0.46609027864291314 0.3250481219420302 1.0000000180025095e-35 0.2108846730745346 0.35748313677433341 84.500000000000014 4.5000000000000009 395.50000000000006 0.34027654937021196 0.15221890357378642 0.24999999999999997 0.086567857142857113 0.011199999999999951 0.18721231840292493 32531.500000000004 0.013513214285714252 29.145181609088826 0.048129254852979406 2.1539136251713003 0 7.5000000000000009 0.54662195217399756 1.0000000180025095e-35 0.22448979591836735 0.16358866030272515 1426.5000000000002 0.177273039066868 2668.5000000000005
decision_type=2 2 2 2 2 2 2 2 2 2 2 2 2 2 2 2 2 2 2 2 2 1 2 2 2 2 2 2 2 2
left_child=1 2 12 4 6 9 8 -8 -3 -6 16 27 -1 14 -14 -15 -5 18 -12 -19 23 -13 -23 25 -25 -2 -26 28 -4 -29
right_child=20 3 11 10 5 -7 7 -9 -10 -11 17 21 13 15 -16 -17 -18 19 -20 -21 -22 22 -24 24 26 -27 -28 29 -30 -31
leaf_value=0.050033722034227061 0.015134267673394659 -0.011396097626271015 0.041369214076419594 -0.031539889733129614 0.0090865028554056454 0.075955106404482872 0.022724376956826553 -0.053429732040576439 0.0017019393519598456 0.0014571276910634924 0.0026122321694383335 0.071002054510094767 -0.037733111056742846 -0.0094105484672901384 0.018705420245499604 -0.038686741413093563 0.046063161713785619 -5.3168558665974162e-05 0.050151952501153611 -0.011262028443776939 0.050588912146452003 0.0022867229966305378 0.032081634068454531 0.074881283186328348 8.6169648969569037e-05 -0.055420191159391188 0.045592615923252422 -0.058940397951944425 -0.0024634623394908426 0.0044249445323758371
leaf_weight=6.681148260831832 12.345781460404398 592.83476391434669 18.669768765568733 63.836695477366447 1039.049200206995 11.041857466101645 136.7605709284544 13.455130025744436 953.13566780090332 2129.1540853530169 270.01865828037262 7.9216491281986237 50.24846462905407 84.636657536029816 62.962608382105827 124.81222695112228 5.3032771646976462 542.61524924635887 15.893204540014265 447.38599765300751 17.098953410983086 65.923784986138344 46.198654860258102 9.0258819758892042 46.842546179890633 10.698410138487814 13.66399624943733 14.862968772649767 186.07036207616329 14.824136033654211
leaf_count=28 50 2475 78 265 4305 45 567 56 3936 8816 1125 33 213 355 264 526 22 2277 66 1878 70 275 193 37 192 46 57 62 773 62
internal_value=0.000402865 0.000149296 -0.00626969 0.000855824 0.00218482 0.00421505 -0.00161763 0.0158388 -0.00331796 0.00396106 -0.00395748 0.00484487 -0.0182454 -0.0196897 -0.00631175 -0.0268905 -0.0254573 -0.00278661 0.00528895 -0.00512418 0.0163053 0.0184434 0.0146255 0.00987139 0.0190276 -0.017503 0.0105035 -0.00210218 0.00152737 -0.0272227
internal_weight=7013.97 6904.3 683.812 6220.48 4875.43 3179.25 1696.19 150.216 1545.97 3168.2 1345.05 354.471 329.341 322.66 113.211 209.449 69.14 1275.91 285.912 990.001 109.676 120.044 112.122 92.5766 69.5324 23.0442 60.5065 234.427 204.74 29.6871
internal_count=29147 28695 2862 25833 20200 13166 7034 623 6411 13121 5633 1476 1386 1358 477 881 287 5346 1191 4155 452 501 468 382 286 96 249 975 851 124
cat_boundaries=0 1
cat_threshold=4
is_linear=0
shrinkage=0.05


Tree=17
num_leaves=31
num_cat=0
split_feature=20 26 10 14 16 29 2 9 9 8 10 23 16 2 19 11 8 11 17 9 9 7 24 14 9 19 8 19 16 16
split_gain=10.6868 10.3814 22.0134 20.3126 14.2125 13.6998 21.325 30.4225 14.8578 13.1318 17.4787 12.3998 12.3813 11.5328 10.9437 10.9148 10.862 16.6186 12.1387 9.25927 8.87546 15.8809 11.4073 7.21665 13.5811 7.94855 6.55038 5.44357 14.6964 2.16661
threshold=0.60000000000000009 1.0000000180025095e-35 0.46193152812449684 0.24999999999999997 0.3250481219420302 1.0000000180025095e-35 0.06344146261352511 1.4689142857142863 0.00059464285714280003 72.051924953729056 0.8370613137382733 139.56485377577323 0.34027654937021196 0.12634332119693503 32531.500000000004 0.92639665653562886 39.75325553864365 0.18996827309326822 8.5000000000000018 2.6462357142857145 0.015914999999999953 0.094045727143322919 2.2098917688866844 0.58333333333333337 0.0030089285714285504 135.50000000000003 48.426934762361434 159.50000000000003 0.016370141394976657 0.30892324607978489
decision_type=2 2 2 2 2 2 2 2 2 2 2 2 2 2 2 2 2 2 2 2 2 2 2 2 2 2 2 2 2 2
left_child=27 2 3 -2 5 9 8 -8 -7 15 -11 13 14 -5 26 -3 17 -4 -19 -13 21 -14 -22 25 -25 -18 -6 29 -29 -1
right_child=1 4 16 11 12 6 7 -9 -10 10 -12 19 20 -15 -16 -17 23 18 -20 -21 22 -23 -24 24 -26 -27 -28 28 -30 -31
leaf_value=0.058215603124625606 0.05700915638907679 -0.00029544157883745379 -0.038140763134628081 -0.019955058874219951 -0.045845413326765262 -0.015696929665339334 0.040489078321772315 -0.0080892986721193254 0.0038353376619516032 -0.028590760952071317 -0.0018880786869933022 0.08522304533154175 0.0029247768604814678 0.025811115423116315 0.043442650329179752 0.027516299630759678 -0.026706875393207038 0.018485905333164628 0.086968830672563321 -0.0019503676367136303 -0.00434671393688741 0.071097203930121547 -0.062328925097303936 0.082775319815435996 0.0025600806039249961 0.010842863966610369 -0.013371293402111926 -0.047256416393098133 0.064837165500607946 0.025510816318426988
leaf_weight=11.469839677214624 9.6188713461160642 1404.8581125736237 6.8926588743925086 322.75390230119228 32.547987014055252 100.47195906937122 90.094926908612251 49.866392403841019 2972.7692200243473 97.056168615818024 167.22617927193642 4.9127273410558683 295.13840556144714 14.201411366462706 5.3468720465898505 36.080883771181107 43.207301869988441 15.38059648871422 11.471975073218344 7.4790178537368774 966.58421678841114 8.7090768814086896 8.4732208400964719 5.2973200529813758 250.67468878626823 20.599206373095512 30.894241884350777 6.7370149195194227 5.0080576241016388 10.86773259937763
leaf_count=47 40 5824 29 1364 136 420 371 207 12297 404 696 20 1229 59 22 150 179 64 47 31 4061 36 36 22 1045 86 129 28 21 47
internal_value=0.000382691 0.00024536 -0.00547226 -0.014195 0.000896357 0.00214349 0.00406622 0.0231521 0.00319466 -0.00147668 -0.0117205 -0.0161856 -0.00365117 -0.0180043 -0.0243082 0.000399351 0.00337215 0.0303106 0.0481429 0.032615 -0.00253435 0.00491798 -0.00486205 0.000505205 0.00427133 -0.0145081 -0.0301562 0.0282728 0.000261641 0.0427114
internal_weight=7012.69 6978.61 712.49 358.966 6266.12 4918.42 3213.2 139.961 3073.24 1705.22 264.282 349.347 1347.69 336.955 68.7891 1440.94 353.524 33.7452 26.8526 12.3917 1278.9 303.847 975.057 319.779 255.972 63.8065 63.4422 34.0826 11.7451 22.3376
internal_count=29147 29004 2986 1514 26018 20369 13295 578 12717 7074 1100 1474 5649 1423 287 5974 1472 140 111 51 5362 1265 4097 1332 1067 265 265 143 49 94
is_linear=0
shrinkage=0.05


Tree=18
num_leaves=31
num_cat=2
split_feature=20 6 19 19 7 21 10 21 21 21 21 21 19 7 16 21 5 7 47 2 21 2 21 12 1 7 11 16 6 52
split_gain=9.71656 10.3677 15.6733 24.3302 19.8296 22.9274 19.2144 16.3564 20.0026 25.9165 19.4481 14.9194 20.6972 18.2727 14.7731 13.7913 13.6435 10.6789 14.0559 16.5944 16.5637 12.7653 10.9912 10.6679 8.4125 7.9495 7.9484 12.5229 7.32932 6.65395
threshold=0.60000000000000009 3.5000000000000004 395.50000000000006 458.50000000000006 0.080193654885662408 0.58824119221470172 0.86557413893117785 1.7400640484324759 1.5563723522853954 1.5687179446225457 0.88871584252650726 1.9260331219220512 177.50000000000003 0.053289733863773156 0.22283124021349643 1.6743485352778869 0.031236861512999401 0.027912115278189552 0 0.076211182187491802 1.5563723522853954 0.021537656445552052 2.879251583901437 0.077350201380805561 0.0054899746790477511 0.0032884890197770506 0.042128479733233609 0.26348994123903424 46.500000000000007 1
decision_type=2 2 2 2 2 2 2 2 2 2 2 2 2 2 2 2 2 2 1 2 2 2 2 2 2 2 2 2 2 1
left_child=-1 2 7 6 16 -6 23 8 10 -10 -2 13 -13 -9 17 -8 -5 21 19 -19 -20 24 -23 -4 -3 28 29 -28 -16 -27
right_child=1 14 3 4 5 -7 15 11 9 -11 -12 12 -14 -15 25 -17 -18 18 20 -21 -22 22 -24 -25 -26 26 27 -29 -30 -31
leaf_value=0.02702988969078246 0.0028072101373265309 -0.0047132299948192376 0.022358606105708691 -0.0032955222790798152 0.1121746746254442 0.0071536685826682628 -0.024900540439834584 0.0088563859454083762 0.04528188935159902 0.0057300195155335302 -0.012864882024085193 0.0072446797883903916 -0.02210130143248977 -0.058356166083412334 0.076433420386922343 0.068751280658763611 -0.018653590771131583 0.035475689051675245 -0.0010469945317688589 -0.014555814318253891 0.018464917125600864 -0.009691417699884089 0.056601744224425835 -0.048024335700628806 0.0047365597806328756 -0.023720727715378209 -0.021726460641889687 0.0024209576642182577 0.0093165985644300311 -0.0056678151942640698
leaf_weight=33.898134276270866 1218.1914526969194 269.28581658005714 5.6771687269210807 400.81362561881542 5.2832774370908728 159.38412714004517 8.3783023059368116 14.735229179263113 57.845016166567802 146.67448514699936 236.24358674883842 136.84485232830048 106.75602169334888 31.159882336854935 5.5328220874071148 7.1706441044807425 227.09752789139748 87.926460459828377 297.88551740348339 20.200970247387886 170.81860741972923 259.60106271505356 6.2889116257429114 69.501329720020294 1849.227887019515 52.384509637951851 58.951604500412941 590.9113472700119 15.586146533489226 461.19748395681381
leaf_count=143 5076 1116 24 1683 22 668 36 62 239 617 989 576 450 131 23 30 957 359 1226 83 704 1070 26 298 7631 218 243 2458 65 1924
internal_value=0.000363508 0.000232856 -0.00209832 -0.00762293 -0.00480586 0.0106196 -0.0321449 0.000403886 0.00232021 0.0169577 0.000257448 -0.0105573 -0.00559922 -0.0366956 0.00182637 0.0181323 -0.00886014 0.00371482 0.00982146 0.0260775 0.00605585 0.00223507 -0.00808394 -0.0426202 0.00353286 -0.00289018 -0.00344686 0.000219753 0.0274131 -0.00809529
internal_weight=7011.45 6977.56 2831.76 883.306 792.579 164.667 90.7274 1948.45 1658.95 204.52 1454.44 289.496 243.601 45.8951 4145.8 15.5489 627.911 2961.24 576.832 108.127 468.704 2384.4 265.89 75.1785 2118.51 1184.56 1163.44 649.863 21.119 513.582
internal_count=29147 29004 11858 3718 3330 690 388 8140 6921 856 6065 1219 1026 193 17146 66 2640 12215 2372 442 1930 9843 1096 322 8747 4931 4843 2701 88 2142
cat_boundaries=0 1 2
cat_threshold=2 2
is_linear=0
shrinkage=0.05


Tree=19
num_leaves=31
num_cat=0
split_feature=12 21 31 16 6 10 14 22 9 14 9 3 16 29 12 3 12 19 9 7 16 12 19 10 22 9 4 19 16 7
split_gain=9.3176 11.2936 15.6357 11.2444 10.5325 21.335 19.9023 13.2988 21.455 11.8508 11.897 13.9678 11.5824 12.7404 16.1975 26.7082 23.0516 15.0113 37.5986 18.4189 11.452 10.7341 10.0741 10.0348 9.30748 8.11641 7.57735 7.79358 7.26977 6.87773
threshold=0.64950980538629521 2.0966606886167862 1.0000000180025095e-35 0.39222975259124859 1.0000000180025095e-35 0.46609027864291314 0.24999999999999997 0.19395517312585273 2.9121035714285708 0.58333333333333337 0.0030089285714285504 4.5000000000000009 0.3250481219420302 1.0000000180025095e-35 0.35748313677433341 84.500000000000014 0.16222316282007535 395.50000000000006 0.0083607142857142509 0.040805251447456906 0.34027654937021196 0.40228435869275209 32531.500000000004 0.72555021029101707 0.80873293688149162 12.611071428571419 0.9819558101472996 171.50000000000003 0.22283124021349643 0.072893647368231868
decision_type=2 2 2 2 2 2 2 2 2 2 2 2 2 2 2 2 2 2 2 2 2 2 2 2 2 2 2 2 2 2
left_child=4 2 26 28 5 6 -1 25 -9 -7 -11 -12 13 14 16 -16 -6 18 -15 -19 22 23 -14 -22 -3 -8 -2 -28 -4 -23
right_child=1 24 3 -5 12 9 7 8 -10 10 11 -13 20 17 15 -17 -18 19 -20 -21 21 29 -24 -25 -26 -27 27 -29 -30 -31
leaf_value=0.055338564894419455 0.090729958714768966 0.063455782537077399 -0.004978525201612953 0.035106708062105002 0.00045486269134599206 -0.015746791885171463 -0.010592886285836836 -0.013064983161039646 -0.04752208723696752 0.08013119625425924 0.011796045306959595 -0.022739422036671193 -0.029071022390725676 -0.016401745099822288 0.020660683166764185 -0.053922038117506732 -0.013488198171868757 0.0032709844870766232 0.012213463749976341 -0.0098021396575573554 0 0.0043857858188486578 0.041387194605973482 -0.015923062405983773 0.0014367220035908391 0.018434854113090354 -0.021660603006928097 0.065443788490099006 -0.048014643280066327 -0.038671099166963895
leaf_weight=9.8905169516801816 6.4390563815832147 18.094492271542553 35.978740155696869 12.982106909155844 1151.2699583172798 62.086626708507538 110.28273904323578 141.12103790044785 66.873766168951988 5.601009488105773 208.62460449337959 33.881125718355179 62.506643548607826 130.9349299967289 136.48059058189392 13.033942416310309 398.83009101450443 1828.8725699782372 919.82116682827473 315.76971977949142 1119.2148184776306 12.735843181610106 5.3778534084558478 108.41472955048084 9.3205092251300794 30.621582299470901 5.1443210393190384 4.8503154218196869 13.580651655793188 32.0087920576334
leaf_count=41 26 76 149 55 4768 259 466 601 284 23 867 142 263 545 564 55 1666 7553 3797 1319 4696 54 22 456 38 128 21 20 58 135
internal_value=0.000342772 0.0150204 0.00532961 -0.0060219 0.000115661 -0.00584508 -0.0141488 -0.0161482 -0.0241851 0.00374485 0.008647 0.00694301 0.000756075 0.00188434 -0.00161115 0.0140938 -0.00313 0.00374513 0.00864174 0.00134344 -0.00336079 -0.00228793 -0.0233631 -0.0014058 0.0426342 -0.00424047 0.0486074 0.0203447 -0.0169452 -0.0263217
internal_weight=7010.64 106.39 78.9752 62.5415 6904.25 668.983 358.79 348.899 207.995 310.193 248.107 242.506 6235.27 4895.01 1699.61 149.515 1550.1 3195.4 1050.76 2144.64 1340.26 1272.37 67.8845 1227.63 27.415 140.904 16.4337 9.99464 49.5594 44.7446
internal_count=29147 443 329 262 28704 2811 1520 1479 885 1291 1032 1009 25893 20267 7053 619 6434 13214 4342 8872 5626 5341 285 5152 114 594 67 41 207 189
is_linear=0
shrinkage=0.05


Tree=20
num_leaves=31
num_cat=1
split_feature=23 16 9 9 5 12 19 3 23 19 27 9 9 47 19 19 0 12 9 9 13 19 19 23 12 23 9 2 21 16
split_gain=14.6695 13.9574 15.0605 13.4192 12.0074 10.8307 11.3495 15.0372 10.6315 20.416 12.0184 10.0477 12.8827 9.93914 10.0319 12.4246 9.89108 9.66843 9.35513 12.7829 10.7261 8.49424 8.23487 7.98072 7.96263 7.68788 7.65336 6.58429 10.98 10.8604
threshold=82.240990924718687 0.53115076284374718 2068.8310714285726 0.00059464285714280003 0.060256346408635107 0.2908469429540172 470.50000000000006 73.500000000000014 27.225791115600604 124.50000000000001 1.0000000180025095e-35 8.5921428571428606 0.082003571428571467 0 530.50000000000011 319.50000000000006 0.11025661388177771 0.35239895271569727 0.13849999999999998 3.6039285714285767 0.93622215939080211 395.50000000000006 632.50000000000011 139.56485377577323 0.058234250203433209 92.5398120135536 2.6462357142857145 0.0059294462353339508 1.2335728167512994 0.54424492198999197
decision_type=2 2 2 2 2 2 2 2 2 2 2 2 2 1 2 2 2 2 2 2 2 2 2 2 2 2 2 2 2 2
left_child=1 2 3 4 17 6 7 24 9 -5 -10 12 -2 -4 15 -15 -16 -1 -7 21 -21 -20 23 25 -3 -14 -25 29 -29 -8
right_child=11 5 13 8 -6 18 27 -9 10 -11 -12 -13 22 14 16 -17 -18 -19 19 20 -22 -23 -24 26 -26 -27 -28 28 -30 -31
leaf_value=-0.010114867931590662 0.033292235980719287 0.0031984647921422249 -0.072880532357004896 0.0084770631463362868 -0.043015315673910204 0.030538524501998746 -0.040752416210090563 0.046763584325306418 0.010359078702663799 0.00025943813539108595 -0.0051154804931323799 0.046129848484226493 0.004223832204906095 -0.013847104262435593 0.0044510189450826044 0.036891092990183803 -0.058959192338025372 0.046151074374775926 -0.052407678169171801 0.04762387073954405 -0.018601767332496761 0.0069566905943130742 0.023879415738424611 0.0508980261593341 -0.027939237545544907 -0.053097427633301934 -0.03136356838252409 -0.023973457845906852 -0.00083206392717237454 0.0068996883627974823
leaf_weight=159.42923730611801 34.77722392976284 23.453363001346588 7.5506895035505295 946.4445748925209 27.619199588894844 31.391320079565048 12.978603348135946 7.7863253504037848 141.6714850962162 3758.0296825170517 1081.2670148015022 24.146944805979729 8.5448466688394564 67.969791814684868 8.7099092453718203 14.538763433694838 19.631020948290825 7.8947735726833335 15.408802852034571 15.022761136293413 10.057529672980307 9.5977681130170804 16.138981640338898 6.5585601627826673 149.26685114204884 17.351367384195328 4.7543457746505737 91.140665635466576 118.05665466189384 137.73404055833817
leaf_count=670 145 99 32 3908 117 133 54 32 588 15556 4522 99 36 282 37 61 84 33 69 63 42 41 66 27 652 74 20 385 498 579
internal_value=-0.000351324 -0.000645436 6.56324e-05 0.000408142 -0.0124947 -0.00778796 -0.0103544 -0.0205921 0.000833542 0.00191387 -0.00331804 0.0175664 0.00963972 -0.0175884 -0.0137147 -0.00481221 -0.0393486 -0.00740425 0.00916469 -0.00416562 0.0208995 -0.0294869 -0.00571906 -0.0187206 -0.0236828 -0.0340476 0.0159169 -0.00520164 -0.0109446 0.00273868
internal_weight=6974.92 6862.65 6240.76 6122.36 194.943 621.895 540.417 180.507 5927.41 4704.47 1222.94 112.272 88.1253 118.4 110.849 82.5086 28.3409 167.324 81.4782 50.0869 25.0803 25.0066 53.3481 37.2091 172.72 25.8962 11.3129 359.91 209.197 150.713
internal_count=29004 28537 25890 25394 820 2647 2299 783 24574 19464 5110 467 368 496 464 343 121 703 348 215 105 110 223 157 751 110 47 1516 883 633
cat_boundaries=0 1
cat_threshold=1
is_linear=0
shrinkage=0.05


Tree=21
num_leaves=31
num_cat=0
split_feature=11 9 12 16 23 31 9 9 35 8 23 9 11 23 31 23 12 27 1 9 12 11 8 23 3 0 24 24 24 13
split_gain=13.8919 13.2081 16.8343 11.7261 17.6869 12.2687 12.2659 12.9147 13.0463 12.845 10.9596 11.2044 10.8791 10.3844 14.3325 9.96336 13.9869 13.3572 7.92318 7.41078 15.3575 7.63312 7.23336 8.74268 8.06368 5.83037 5.68876 5.27116 4.90568 4.47755
threshold=1.2988815225561536 8.1442857142857168 0.34186291333160229 0.53115076284374718 45.70727937158248 1.0000000180025095e-35 2068.8310714285726 0.0020160714285714005 1.0000000180025095e-35 44.383655560126151 48.670558735047116 0.76667142857142878 0.27064940576483704 21.068515003725093 1.0000000180025095e-35 27.225791115600604 0.618543329646002 1.0000000180025095e-35 0.0015362248676172002 2512.2082142857148 0.12639031750996796 0.010743663220335051 30.466508085127924 31.715357045839031 5.5000000000000009 0.177273039066868 2.28659520025787 1.0520065655912811 -1.2773801330827717 0.60616388599082882
decision_type=2 2 2 2 2 2 2 2 2 2 2 2 2 2 2 2 2 2 2 2 2 2 2 2 2 2 2 2 2 2
left_child=3 2 10 6 19 -6 7 8 18 22 11 -2 -10 25 -15 16 -9 -17 -1 21 -21 27 23 -8 -24 -11 -23 -5 -12 -7
right_child=1 -3 -4 4 5 29 9 15 12 13 28 -13 -14 14 -16 17 -18 -19 -20 20 -22 26 24 -25 -26 -27 -28 -29 -30 -31
leaf_value=-0.039756053983484113 -0.0010579391642339174 0.076807794088782536 0.062633729489026665 0.037396103735742557 -0.028001762249016057 0.08350217168692653 -0.055893484701218389 0.0019158320956166347 -0.016059525674004656 -0.019980786853685106 0.024352159791344693 0.080665676680318862 -0.063257124682993965 -0.064501185317918194 0.017439103283902295 0.01120370839627579 0.041389765182376158 -0.0048067029654318633 -0.002859707765384203 -0.035702743062718326 0.077692004873855136 -0.010066373688825143 0.008094167536639281 0.026801848100249132 0.077445560877131184 -0.055346020866427273 -0.055649019035198588 -0.017237890308185354 -0.01978382371031168 0.029822178097484098
leaf_weight=15.109787300229071 9.1171725541353243 9.056829556822775 13.712560907006262 14.072235971689226 5.3563081175088909 8.5312708318233508 8.0665177255868894 4439.7014209777117 44.594751909375191 20.182633265852928 7.4671937078237525 7.4807557165622702 17.02040821313858 7.0352728813886669 20.998241946101189 147.37380269169807 22.468970850110054 1108.6219192892313 354.33503641188145 5.01960641145706 6.9710869193077087 560.51078486442566 22.914323240518573 5.0803082883357993 5.1040231585502616 30.012151822447777 6.8873969912528983 6.1978879868984214 35.530159756541252 8.0825171619653684
leaf_count=63 38 37 57 59 24 36 34 18365 188 85 31 31 74 30 87 611 92 4642 1473 22 29 2392 96 21 21 128 30 26 148 34
internal_value=-0.000334316 0.0200641 0.0128905 -0.000579168 -0.00712881 0.0367902 6.9634e-05 0.000378736 -0.00796462 -0.0157954 0.00127535 0.0357383 -0.0292597 -0.0276931 -0.00310303 0.0010087 0.00211664 -0.00292338 -0.0043926 -0.0087521 0.0299059 -0.00955434 0.00670534 -0.0235991 0.021136 -0.0412936 -0.0106382 0.0204429 -0.0119642 0.058021
internal_weight=6972.61 82.3647 73.3078 6890.25 621.629 21.9701 6268.62 6149.23 431.06 119.393 59.5953 16.5979 61.6152 78.2283 28.0335 5718.17 4462.17 1256 369.445 599.659 11.9907 587.668 41.1652 13.1468 28.0183 50.1948 567.398 20.2701 42.9974 16.6138
internal_count=29004 342 305 28662 2652 94 26010 25508 1798 502 248 69 262 330 117 23710 18457 5253 1536 2558 51 2507 172 55 117 213 2422 85 179 70
is_linear=0
shrinkage=0.05


Tree=22
num_leaves=31
num_cat=0
split_feature=23 9 9 4 1 6 9 11 2 7 5 8 5 2 11 19 5 7 11 9 0 0 8 5 11 0 41 19 9 19
split_gain=12.9036 8.86007 11.4577 9.71533 8.72063 12.1809 19.8377 19.8464 28.2876 15.7536 13.2187 33.0979 13.8698 11.3826 10.9798 14.1883 16.0231 10.6241 8.96017 12.8482 8.93588 9.83512 8.73701 7.97706 7.94673 7.53893 10.3453 8.97802 7.22665 8.59353
threshold=82.240990924718687 8.5921428571428606 0.082003571428571467 0.81750166087647869 0.0095871733471561017 4.5000000000000009 0.0093710714285713519 0.54662195217399756 0.10193288479986082 0.08289014295690271 0.065827056484528176 82.729990978287077 0.034310154368968206 0.010836753521680152 0.04542676660443281 33.500000000000007 0.036719934318848554 0.044487255394932958 0.11996403081696326 4.2896428571428595 0.12891477880148489 0.29896138722833515 78.549564524346707 0.047898051313345603 1.4911062376826278 0.033541020481551456 1.0000000180025095e-35 9067.5000000000018 0.0020160714285714005 7918.5000000000009
decision_type=2 2 2 2 2 2 2 2 2 2 2 2 2 2 2 2 2 2 2 2 2 2 2 2 2 2 2 2 2 2
left_child=4 2 -2 -4 13 6 7 9 -9 -6 12 -12 -8 25 -7 16 -16 -17 19 22 23 -22 -15 -20 -5 26 27 -1 29 -27
right_child=1 -3 3 24 5 14 10 8 -10 -11 11 -13 -14 18 15 17 -18 -19 20 -21 21 -23 -24 -25 -26 28 -28 -29 -30 -31
leaf_value=0.0071645941086771643 0.031399555049222656 0.043416202770771121 0.020652372452206757 -0.036185867648050082 -0.022467073941614721 -0.00074168615750323872 -0.00097530042125248463 0.030390419360462578 -0.075555789466847281 0.019230365807459911 -0.0097717544039114725 0.04938098007826399 0.0090880032056676711 -0.0074762765723188733 0.0029800804515718615 0.005134794202457914 0.033555181701142092 -0.0086275536732261134 0.012451305148223128 -0.035190139486335648 -0.037969273599593956 0.013871153391422418 -0.061910432638555626 0.090048867353135179 0.023468339355425753 0.0098984670100368231 -0.059332247455840773 -0.012174855455304147 0.010132445159027588 -0.040637341056310311
leaf_weight=98.325066044926643 34.656451851129532 24.03183513879776 21.131964832544327 24.930179640650753 259.56216032803059 1521.7559285312891 1661.7587033063173 43.504551738500595 7.2488461136817923 24.611023619771004 573.9629610478878 24.542697697877884 430.97623497247696 167.32175871729851 83.551463380455971 1207.3354180008173 88.757741078734398 158.32824462652206 10.94342891871929 71.095420628786087 15.696134239435194 21.488956972956657 7.6512874811887732 4.8018492460250846 7.0032256990671149 16.694513350725174 8.8607854247093183 152.89530718326569 180.70015312731266 16.553155705332756
leaf_count=409 145 99 87 107 1096 6300 6963 182 32 103 2404 102 1798 697 344 4974 365 656 46 296 66 90 32 20 29 70 37 636 750 69
internal_value=-0.000318036 0.0165261 0.00906141 -0.00546497 -0.000593446 4.11807e-05 -0.00220722 -0.0136817 0.0150415 -0.0188328 -0.000776903 -0.0073299 0.00109507 -0.00559556 0.00226656 0.00524618 0.0187689 0.00353508 -0.0132342 -0.0172522 0.00534801 -0.00792016 -0.00991916 0.0368508 -0.0229148 -0.000765058 -0.00649234 -0.00458586 0.00617361 -0.0151585
internal_weight=6970.68 111.754 87.7218 53.0654 6858.92 6085.9 3026.17 334.927 50.7534 284.173 2691.24 598.506 2092.73 773.028 3059.73 1537.97 172.309 1365.66 298.999 246.068 52.9304 37.1851 174.973 15.7453 31.9334 474.029 260.081 251.22 213.948 33.2477
internal_count=29004 467 368 223 28537 25319 12680 1413 214 1199 11267 2506 8761 3218 12639 6339 709 5630 1247 1025 222 156 729 66 136 1971 1082 1045 889 139
is_linear=0
shrinkage=0.05


Tree=23
num_leaves=31
num_cat=0
split_feature=11 9 12 16 7 6 19 7 19 19 9 12 9 23 9 9 7 3 19 6 9 12 19 13 11 7 22 9 9 13
split_gain=11.8537 11.7554 15.1092 10.5843 18.1061 12.7242 13.8123 19.2813 19.7887 17.6089 14.2436 10.7437 12.4648 10.0412 10.0027 9.88629 13.805 11.6569 9.77674 16.0813 13.1231 12.3171 9.67632 9.29754 9.04421 7.72534 7.55832 7.25842 11.7434 4.60268
threshold=1.2988815225561536 8.1442857142857168 0.34186291333160229 0.53115076284374718 0.11903607745478341 1.5000000000000002 2668.5000000000005 0.050089904316856504 366.50000000000006 3030.0000000000005 0.76667142857142878 0.618543329646002 0.15752500000000003 48.670558735047116 0.76667142857142878 0.0020160714285714005 0.030791051679357102 20.500000000000004 470.50000000000006 1.5000000000000002 0.0044996428571428002 0.10890525178856476 319.50000000000006 0.41061691645843262 0.17231589541191158 0.030185510914593306 0.73534062857528881 2.5235428571428584 0.086567857142857113 0.6312700787338269
decision_type=2 2 2 2 2 2 2 2 2 2 2 2 2 2 2 2 2 2 2 2 2 2 2 2 2 2 2 2 2 2
left_child=3 2 13 5 18 6 7 8 -1 -8 -9 15 -13 14 -2 16 -7 -17 20 21 23 -20 -14 -5 -11 -22 -21 28 -6 -15
right_child=1 -3 -4 4 27 11 9 10 -10 24 -12 12 22 29 -16 17 -18 -19 19 26 25 -23 -24 -25 -26 -27 -28 -29 -30 -31
leaf_value=-0.0054544744175183514 -0.0012231964551840818 0.072108601814605808 0.058896472004675293 0.069792698887804705 0.047568339314663428 -0.0038945672065025618 0.099048852538422605 -0.0079767041814251972 -0.032502774620416224 8.9643928014670815e-05 0.0032700537685126044 -0.019088701942867995 0.081781520125814966 -0.042889004004299333 0.075688262294280495 0.003335068356354515 -0.041272349652919205 -0.0025881879272742167 -0.029751366400675605 -0.010986621762762931 -0.0022076607441802371 0.055861325767108241 0.0046734900731603361 -0.00050420418521418282 0.070761068592772439 -0.026282409716109224 0.0050738105210787893 0.072716045128121132 -0.042020354265402217 -0.0031206075269299884
leaf_weight=164.69081062078476 9.1207729279994982 9.0461940765380842 13.713021188974379 6.2899522483348873 9.9130251854658145 369.82517641782761 6.4795403331518164 526.23518727719784 115.34070625901222 32.467614024877548 604.42863224446774 7.8106521815061596 12.059381872415544 9.3163997232913953 7.5786071121692649 3277.6999083310366 26.426577195525169 1111.529192879796 5.2964102178812054 247.95700743794441 43.109618797898293 18.241357609629631 6.3472654223442069 17.296792238950729 5.1878989189863196 154.30359947681427 103.40183010697365 8.491873160004614 5.6241640448570243 33.596292719244957
leaf_count=689 38 37 57 26 42 1539 27 2217 491 136 2525 32 49 39 31 13549 114 4594 23 1048 185 77 26 74 22 680 436 36 25 140
internal_value=-0.000302645 0.0185391 0.0117729 -0.00052901 -0.00676083 8.67822e-05 -0.00400966 -0.00487496 -0.0166207 0.0234835 -0.00196025 0.00132645 0.0331926 0.0007685 0.0336263 0.00115014 -0.00640974 0.0018339 -0.00848567 -0.00354973 -0.0168308 0.0363411 0.055631 0.0182465 0.0101203 -0.0210542 -0.00624585 0.035664 0.0147579 -0.0119503
internal_weight=6968.83 82.3713 73.3251 6886.45 619.926 6266.53 1454.83 1410.7 280.032 44.1351 1130.66 4811.7 26.2173 59.6121 16.6994 4785.48 396.252 4389.23 595.897 374.897 221 23.5378 18.4066 23.5867 37.6555 197.413 351.359 24.0291 15.5372 42.9127
internal_count=29004 342 305 28662 2652 26010 6107 5922 1180 185 4742 19903 107 248 69 19796 1653 18143 2549 1584 965 100 75 100 158 865 1484 103 67 179
is_linear=0
shrinkage=0.05


Tree=24
num_leaves=31
num_cat=0
split_feature=23 16 26 10 12 19 22 21 19 2 2 2 11 23 17 23 12 19 3 11 19 26 13 16 4 16 8 0 27 21
split_gain=11.4482 10.267 10.4558 17.0733 19.5612 17.1202 12.7054 9.69388 9.58062 12.3517 31.6705 16.5195 10.8988 11.5395 10.4113 8.87651 8.77342 9.70547 13.3187 9.17717 10.4524 8.75901 10.804 8.46258 7.91377 9.38365 8.41694 7.55079 6.77454 6.17096
threshold=82.240990924718687 0.53115076284374718 1.0000000180025095e-35 0.46609027864291314 0.31145571533312427 1251.5000000000002 0.32464337447811714 1.5687179446225457 28.500000000000004 0.047234029798909609 0.10546608125493596 0.025820152763657803 0.92639665653562886 12.873483485166101 16.500000000000004 58.064472515361444 0.2908469429540172 470.50000000000006 62.500000000000007 0.20759890396843059 1182.5000000000002 1.0000000180025095e-35 0.5464322724106947 0.3250481219420302 0.75457362955266982 0.59401230228471114 52.677072800769885 0.38970428833620813 1.0000000180025095e-35 1.9260331219220512
decision_type=2 2 2 2 2 2 2 2 2 2 2 2 2 2 2 2 2 2 2 2 2 2 2 2 2 2 2 2 2 2
left_child=1 2 3 4 5 -1 7 -5 9 11 -11 -4 13 -10 -14 -6 17 18 27 20 -18 -21 -23 -8 26 -26 -19 -3 -2 -30
right_child=28 16 8 6 15 -7 23 -9 12 10 -12 -13 14 -15 -16 -17 19 24 -20 21 -22 22 -24 -25 25 -27 -28 -29 29 -31
leaf_value=-0.013885945996494004 0.047489360914421824 -0.026729882104974286 0.0042267224494064847 0.058988253716958705 -0.071906944435445805 0.039652112810746792 -0.0039073998856275606 -0.016074175217575551 0.0011364275129084325 0.028958960532111378 -0.014162487423955107 -0.02310893955238047 0.013549172117986896 -0.0044056154612981012 0.079730661603650582 -0.003378451903232855 -0.042010539965127998 -0.014071384478720731 0.037126531880796641 0.047784360663282406 0.037371149973563368 0.049468188634246311 -0.0084427664336796729 0.021242183963683346 0.055274172558558932 0.0013740156509224879 0.0023036174579795636 0.001311030264811241 0.0047123315491128318 0.037529221645134114
leaf_weight=253.44617094099522 14.486663535237311 139.34457874298096 831.20921660959721 15.750902190804483 20.174220740795139 15.728851392865179 278.8305721282959 5.7239665389060965 3114.6779384613037 142.44698056578636 60.469478994607925 59.068401336669922 45.279200509190559 1344.3361572921276 6.8209103643894187 6.37777355313301 14.938882976770403 179.31531475484371 9.973571449518202 17.849806249141693 5.5769766718149176 10.621553942561148 31.998381659388542 37.888606667518616 11.182253882288931 29.136996537446976 138.62716406583786 28.583219304680824 79.240429893136024 17.54571558535099
leaf_count=1076 62 615 3437 65 87 67 1163 24 12875 586 251 244 188 5614 28 27 65 761 41 76 23 45 139 158 47 124 584 127 332 73
internal_value=-0.000287819 -0.00054686 6.10016e-05 -0.00602402 -0.0147986 -0.0107254 0.00163606 0.0387674 0.000750285 0.0049498 0.0160834 0.00240504 -0.000266378 -0.000533368 0.0224455 -0.0557085 -0.00669833 -0.00901982 -0.0185714 0.00860153 -0.0201125 0.0184431 0.00595452 -0.000877258 -0.00425899 0.0165463 -0.00691746 -0.0219293 0.0156126 0.0107457
internal_weight=6966.65 6855.38 6238.23 633.921 295.727 269.175 338.194 21.4749 5604.31 1093.19 202.916 890.278 4511.11 4459.01 52.1001 26.552 617.149 536.163 177.901 80.9856 20.5159 60.4697 42.6199 316.719 358.262 40.3193 317.942 167.928 111.273 96.7861
internal_count=29004 28537 25890 2667 1257 1143 1410 89 23223 4518 837 3681 18705 18489 216 114 2647 2299 783 348 88 260 184 1321 1516 171 1345 742 467 405
is_linear=0
shrinkage=0.05


Tree=25
num_leaves=31
num_cat=0
split_feature=10 19 19 9 2 17 10 22 9 22 9 19 2 2 9 9 9 2 9 31 1 9 22 39 12 17 23 4 19 22
split_gain=7.37344 6.24957 13.4062 24.0139 31.3354 22.0147 19.1675 16.6064 14.4455 16.7429 12.2362 18.7585 12.1632 21.0267 38.9442 33.1347 22.3259 20.7351 20.6714 20.2704 16.5012 14.2369 12.6159 11.9087 11.2061 9.2437 8.80786 8.00962 6.0398 6.88863
threshold=0.99358507599353252 28.500000000000004 58.500000000000007 3.4033500000000005 0.05593369655318476 11.500000000000002 0.19567722141452173 0.042050932675577204 2796.6267857142861 0.24171366526534252 1247.6196428571432 338.50000000000006 0.057191329388957456 0.10692493969235782 124.7592857142857 0.015064642857142803 471.83678571428572 0.16048778741821532 2.0835714285714286 1.0000000180025095e-35 0.034928830034517605 0.030357142857142853 0.72850924978224052 1.0000000180025095e-35 0.68976506702268836 13.500000000000002 13.058012281353632 0.053695851472983606 23610.000000000004 0.98810913341773798
decision_type=2 2 2 2 2 2 2 2 2 2 2 2 2 2 2 2 2 2 2 2 2 2 2 2 2 2 2 2 2 2
left_child=1 12 3 5 23 7 -7 -3 10 27 24 -12 18 14 15 -14 17 -15 19 21 22 -1 -20 -5 -4 -21 -22 -10 29 -2
right_child=28 2 8 4 -6 6 -8 -9 9 -11 11 -13 13 16 -16 -17 -18 -19 20 25 26 -23 -24 -25 -26 -27 -28 -29 -30 -31
leaf_value=0.018071483671123215 -0.02889320626201829 0.015576668746669881 -0.00059147748001225258 0.073662108006457658 -0.058322585676902919 0.092158924228717354 -0.012579663157678637 -0.054862656484100249 0.067410149604145139 -0.042670017423585206 0.045776212192975702 -0.01250693257741366 -0.0091885462285342147 -0.040530685632455411 -0.037130502690477366 0.04936868297459842 0.086322618198220319 0.012535690557178264 -0.035854681364231734 -0.015207545742738901 0.026645011101345886 -0.0042236052828997332 0.018358949142208311 0.013630904347360709 0.023276453082372722 0.0019497754047726329 0.0083514331864587895 -0.01314585211244867 0.074958813926326362 0.033000965498033094
leaf_weight=129.91844779253006 6.2807859182357832 9.5589177608489972 5186.720304146409 13.497586429119108 11.323944076895712 5.2885353714227703 22.795292004942894 59.784551203250885 5.6372040510177595 39.143781930208206 34.886385381221771 22.562650546431541 31.919592216610909 38.024489879608154 21.83370403945446 97.204529821872711 5.7731124013662329 35.326002612709999 34.034810960292816 338.83636920154095 79.621489599347115 158.73045356571674 15.440880909562109 21.879179492592812 49.541676342487335 101.49293369054794 389.51390428841114 6.4451818466186523 5.1187527924776068 14.753838017582893
leaf_count=546 26 40 21586 56 48 22 98 252 24 170 144 96 134 160 92 399 24 147 140 1418 328 662 64 91 208 431 1612 27 21 61
internal_value=0.000101588 1.20359e-06 -0.000775084 -0.0158183 0.0135671 -0.0299545 0.00722352 -0.0450722 -0.000368216 -0.0267666 -0.000111319 0.0228171 0.0028881 0.0134504 0.0243958 0.0348587 -0.00737331 -0.0149233 0.000935263 -0.00448857 0.00856823 0.00579669 -0.0188314 0.0368191 -0.000364262 -0.011242 0.0114719 0.0242731 0.0265498 0.014234
internal_weight=6992.89 6966.74 5489.07 144.128 46.7007 97.4273 28.0838 69.3435 5344.94 51.2262 5293.71 57.449 1477.67 230.081 150.958 129.124 79.1236 73.3505 1247.59 728.978 518.611 288.649 49.4757 35.3768 5236.26 440.329 469.135 12.0824 26.1534 21.0346
internal_count=29127 29019 22862 607 195 412 120 292 22255 221 22034 240 6157 956 625 533 331 307 5201 3057 2144 1208 204 147 21794 1849 1940 51 108 87
is_linear=0
shrinkage=0.05


Tree=26
num_leaves=31
num_cat=0
split_feature=11 9 10 23 0 6 19 5 9 9 9 7 2 9 9 1 19 23 2 7 11 23 23 11 9 10 10 19 9 24
split_gain=10.2699 10.1832 12.4852 7.34202 7.6213 7.17701 15.2762 28.9227 21.7755 20.7001 19.0083 28.703 17.9396 18.6197 16.8438 15.6743 15.6037 14.922 14.7241 12.208 10.7363 12.3803 16.2265 14.5104 21.5586 11.0089 10.8294 10.4554 7.34499 6.51888
threshold=1.2988815225561536 24.670357142857103 0.19256937171823504 41.232508839588633 0.15613782500629944 3.5000000000000004 165.50000000000003 0.078330788752616162 36.111428571428569 1.203678571428572 0.32782142857142843 0.064545425488953964 0.10002412233152456 471.83678571428572 0.00026609999999995009 0.033091491555674611 223.50000000000003 4.2746268250230912 0.092179484285963412 0.076845297172812757 0.059797022877354604 26.362682426637296 51.42453868880137 0.28094694345189275 0.010524999999999901 0.36531895175607637 0.99358507599353252 253.50000000000003 0.86907142857142861 -1.0608102579103103
decision_type=2 2 2 2 2 2 2 2 2 2 2 2 2 2 2 2 2 2 2 2 2 2 2 2 2 2 2 2 2 2
left_child=5 2 3 4 -2 6 9 8 16 10 14 -12 15 -14 -1 -11 -8 -9 -10 -19 26 23 27 25 -25 -22 -7 -23 -24 -5
right_child=1 -3 -4 29 -6 20 7 17 18 12 11 -13 13 -15 -16 -17 -18 19 -20 -21 21 22 28 24 -26 -27 -28 -29 -30 -31
leaf_value=-0.033611430175889384 -0.0066978906990687011 0.0737635684584039 0.062227787464038432 0.027361674116397668 0.064414775214856224 -0.0011087489923971281 -0.018151218517607794 0.059180809854421201 -0.013288502710113474 -0.023445688651342944 -0.00048426305802490934 -0.039791041719793474 -0.039276867683749606 0.06018316462517366 0.0022913693314552453 0.011765541150768723 0.0034674302833020165 -0.033789755521671468 -0.078638826261752198 -0.0072220319740963299 0.00042668489461412316 -0.029500559073520456 0.040326449806651392 0.06044126931251334 0.011508491010635832 0.0098419713788995156 0.03897910721643269 -0.0012980848703369645 -0.0073424613912582469 -0.014655917585417989
leaf_weight=34.523345619440079 6.310606136918067 7.2512534558773032 10.567969322204588 11.831511229276655 8.7801268994808179 2496.6466764509678 93.756184071302414 5.229646384716033 245.19879813492298 33.183652609586716 105.33006472885609 83.350061625242233 33.123421773314476 5.3562056720256797 577.71913725137711 599.697938144207 752.04490314424038 137.30362373590469 8.8786423057317716 63.957139655947685 782.73036397993565 70.895913824439049 21.136803522706032 27.660012558102608 121.86075158417225 515.77208098769188 16.856094926595688 61.920082151889801 12.746893435716627 40.164690256118774
leaf_count=153 26 30 44 49 36 10349 397 22 1038 140 443 353 139 22 2432 2493 3172 586 38 272 3219 297 87 114 500 2128 69 258 53 168
internal_value=9.6014e-05 0.0173696 0.0119512 0.00387611 0.0344996 -0.000115854 -0.00208103 -0.00601726 -0.00278762 0.00140839 -0.00401532 -0.0178865 0.00788586 -0.0251827 0.000253546 0.00990801 0.00106325 -0.0231862 -0.0156219 -0.0253796 0.00120569 0.00438736 -0.00850031 0.00587495 0.0206284 0.00417081 -0.000836382 -0.0164008 0.0222777 -0.00496485
internal_weight=6991.78 84.9062 77.6549 67.0869 15.0907 6906.88 2778.65 1306.37 1099.88 1472.28 800.923 188.68 671.361 38.4796 612.242 632.882 845.801 206.49 254.077 201.261 4128.23 1614.72 166.7 1448.02 149.521 1298.5 2513.5 132.816 33.8837 51.9962
internal_count=29127 353 323 279 62 28774 11700 5525 4645 6175 3381 796 2794 161 2585 2633 3569 880 1076 858 17074 6656 695 5961 614 5347 10418 555 140 217
is_linear=0
shrinkage=0.05


Tree=27
num_leaves=31
num_cat=2
split_feature=11 9 10 23 0 6 7 9 2 9 19 5 12 48 19 19 1 49 7 5 11 23 23 11 27 11 10 17 17 9
split_gain=9.29223 9.28349 11.3092 6.59646 6.81299 6.48817 14.0273 16.423 14.9669 14.7578 19.0543 16.7054 14.3115 12.9555 10.0473 18.1452 16.8873 12.9363 12.5487 12.9042 9.68232 11.1812 14.665 13.1342 23.3728 9.908 9.73042 9.36008 7.90809 6.59077
threshold=1.2988815225561536 24.670357142857103 0.19256937171823504 41.232508839588633 0.15613782500629944 3.5000000000000004 0.054206466078038758 0.7343214285714289 0.14107832226246603 0.19785714285714304 223.50000000000003 0.12290833197520011 0.50450773281900907 0 159.50000000000003 1.0000000180025095e-35 0.040379825742471655 1 0.022466584791298903 0.058161219978097513 0.059797022877354604 26.362682426637296 51.42453868880137 0.31357815851655851 1.0000000180025095e-35 0.50625400045183033 0.99358507599353252 1.0000000180025095e-35 9.5000000000000018 0.86907142857142861
decision_type=2 2 2 2 2 2 2 2 2 2 2 2 2 1 2 2 2 1 2 2 2 2 2 2 2 2 2 2 2 2
left_child=5 2 3 4 -2 6 14 9 13 11 -11 -8 -10 -9 15 16 -1 -17 28 -20 26 23 25 27 -25 -23 -7 -22 -16 -24
right_child=1 -3 -4 -5 -6 20 7 8 12 10 -12 -13 -14 -15 18 17 -18 -19 19 -21 21 22 29 24 -26 -27 -28 -29 -30 -31
leaf_value=-0.042192121922339523 -0.0063749840437288532 0.070549791789248528 0.059271508509539717 -0.0047169866774533394 0.060734278338000873 -0.0010535348599611655 0.0023966910724706261 0.017491130257088618 -0.06575377138114083 -0.033175440199798421 -0.00061706098665559154 -0.020512043303598775 0.018359582915253272 0.0030275750414093666 0.011785126938502748 0.0034641138102706999 -0.0035162785599997144 0.037244536707571947 -0.010980704412937844 -0.034195889125532994 0.0074883730336048789 -0.0083021969155853206 0.038128878748467189 -0.036238561849554644 0.030183954418847993 -0.041415934351372946 0.036850591255643265 -0.0011095467840471613 -0.023578020915584419 -0.0069870875188870717
leaf_weight=31.620576903223991 6.3039771169424048 7.208099663257598 10.54580321907997 51.93605375289917 8.8507049828767759 2496.1360797584057 541.12875477969646 195.33936549723148 14.049943804740908 91.536151245236397 88.812784343957901 93.170522853732109 7.691051557660102 752.06751127541065 81.530977815389633 84.696647390723228 260.60904781520367 42.806932494044304 401.4441065788269 70.669492468237877 816.39619223773479 103.28440727293491 21.240237504243851 15.057842701673506 102.43528725206852 29.075687944889069 16.941688895225525 515.42397230863571 19.448673501610756 12.730962127447127
leaf_count=134 26 30 44 217 36 10349 2285 814 60 388 376 397 32 3156 341 357 1093 178 1702 304 3345 433 87 62 419 122 69 2135 83 53
internal_value=9.05834e-05 0.0165274 0.0113631 0.0036811 0.0326319 -0.000110885 -0.00198041 0.000668415 0.00506922 -0.00456085 -0.017179 -0.000963133 -0.0358212 0.00601653 -0.00674415 -0.00085341 -0.00773129 0.0148647 -0.0110489 -0.0144728 0.00114521 0.0041654 -0.0080972 0.00557664 0.0216052 -0.0156399 -0.000794562 0.00415733 0.00490813 0.0211037
internal_weight=6990.19 84.8446 77.6365 67.0907 15.1547 6905.34 2776.62 1783.8 969.148 814.648 180.349 634.299 21.741 947.407 992.826 419.733 292.23 127.504 573.093 472.114 4128.72 1615.64 166.331 1449.31 117.493 132.36 2513.08 1331.82 100.98 33.9712
internal_count=29127 353 323 279 62 28774 11700 7508 4062 3446 764 2682 92 3970 4192 1762 1227 535 2430 2006 17074 6656 695 5961 481 555 10418 5480 424 140
cat_boundaries=0 1 2
cat_threshold=1 1
is_linear=0
shrinkage=0.05


Tree=28
num_leaves=31
num_cat=0
split_feature=11 10 13 23 11 23 23 5 27 23 2 2 3 7 4 19 13 39 11 10 7 31 8 7 5 19 13 13 5 12
split_gain=8.40742 8.0348 7.08688 6.28747 5.8796 18.7706 13.1979 13.2651 12.8425 8.29601 9.43165 7.44761 19.228 17.2906 7.18058 7.17745 12.8431 10.8533 10.6417 23.657 18.2685 8.5604 5.45603 5.04129 5.17524 4.60493 6.2414 5.06552 3.23876 1.57603
